tree
version=v4
num_class=1
num_tree_per_iteration=1
label_index=0
max_feature_idx=2
objective=regression
feature_names=Column_0 Column_1 Column_2
feature_infos=[0:339] [0:339] [0:339]
tree_sizes=2727 2747 2745 2749 2754 2756 2756 2754 2754 2754 2759 2749 2759 2752 2743 2755 2752 2757 2751 2747 2755 2755 2753 2758 2756 2741 2756 2762 2751 2751 2769 2743 2760 2749 2755 2761 2755 2762 2756 2751 2777 2776 2759 2753 2755 2735 2758 2759 2750 2760 2772 2779 2750 2754 2729 2762 2748 2762 2739 2754 2749 2766 2730 2745 2728 2747 2731 2735 2742 2742 2737 2754 2760 2714 2766 2771 2718 2722 2750 2739 2736 2723 2760 2744 2761 2769 2733 2740 2754 2760 2780 2739 2727 2732 2747 2763 2731 2764 2764 2747

Tree=0
num_leaves=31
num_cat=0
split_feature=2 2 2 2 2 2 2 2 2 2 2 2 1 1 1 1 1 1 1 2 1 1 1 1 2 0 2 2 0 1
split_gain=9.20378e+07 1.23899e+07 7.98199e+06 2.31957e+06 2.11069e+06 872100 588336 561281 218591 178963 162379 116494 111719 97699.6 90848.2 86099.7 62818.1 61296.6 57787.3 49350.3 48928.5 47287 36781.9 34264.7 33167.6 26261.3 25298.9 24189.8 23884.7 22994.1
threshold=116.50000000000001 202.50000000000003 54.500000000000007 244.50000000000003 168.50000000000003 81.500000000000014 33.500000000000007 138.50000000000003 182.50000000000003 268.50000000000006 99.500000000000014 226.50000000000003 161.50000000000003 135.50000000000003 72.500000000000014 24.500000000000004 204.50000000000003 168.50000000000003 44.500000000000007 291.50000000000006 236.50000000000003 246.50000000000003 117.50000000000001 192.50000000000003 153.50000000000003 160.50000000000003 18.500000000000004 66.500000000000014 94.500000000000014 176.50000000000003
decision_type=2 2 2 2 2 2 2 2 2 2 2 2 2 2 2 2 2 2 2 2 2 2 2 2 2 2 2 2 2 2
left_child=2 4 6 11 7 14 15 13 17 20 28 23 24 -2 27 26 29 -6 -8 -11 -5 -13 -12 -3 -9 -14 -1 -4 -7 -10
right_child=1 3 5 9 8 10 18 12 16 19 22 21 25 -15 -16 -17 -18 -19 -20 -21 -22 -23 -24 -25 -26 -27 -28 -29 -30 -31
leaf_value=116.20218661516118 121.68625847608865 125.36731889665128 118.39849263820125 127.28250420705038 123.71577737076804 119.78748603866312 117.34095789858662 122.87710077807846 124.48405636881263 129.11809356779679 120.66202001039393 126.51319855628192 123.34877018360586 122.54684477172158 119.33322797131727 116.81187039492309 125.50419913167616 124.38902945107668 117.96273799375071 129.98319888798176 128.46412551125425 127.69657485214371 121.36854858026086 126.00108646772908 123.25284309707466 123.80613668028901 116.49675371472827 118.87694852411748 120.23667352658259 124.93760241154833
leaf_weight=1785 768 270 680 108 555 707 853 1314 408 463 700 400 527 578 637 1280 411 865 665 256 464 107 250 1015 1062 776 1232 432 509 887
leaf_count=1785 768 270 680 108 555 707 853 1314 408 463 700 400 527 578 637 1280 411 865 665 256 464 107 250 1015 1062 776 1232 432 509 887
internal_value=121.502 124.585 117.942 127.285 123.564 119.688 116.767 122.929 124.584 128.901 120.358 126.121 123.249 122.056 118.857 116.468 124.966 124.126 117.613 129.426 128.241 126.763 120.848 125.868 123.045 123.621 116.322 118.584 119.976 124.795
internal_weight=20964 11234 9730 3083 8151 3915 5815 5025 3126 1291 2166 1792 3679 1346 1749 4297 1706 1420 1518 719 572 507 950 1285 2376 1303 3017 1112 1216 1295
internal_count=20964 11234 9730 3083 8151 3915 5815 5025 3126 1291 2166 1792 3679 1346 1749 4297 1706 1420 1518 719 572 507 950 1285 2376 1303 3017 1112 1216 1295
is_linear=0
shrinkage=1


Tree=1
num_leaves=31
num_cat=0
split_feature=2 2 2 2 2 2 2 2 1 2 2 2 2 1 1 2 2 1 1 1 1 1 2 1 1 1 1 0 2 2
split_gain=8.30641e+07 1.11819e+07 7.20522e+06 2.0963e+06 1.9049e+06 752052 568747 506556 198524 137850 132318 118021 110830 100827 88173.9 78482.5 66958.7 58019.2 53032.9 44383.8 41073.5 30923.9 29933.7 27890.1 24765 24138.7 23628.7 23005.1 20079.1 19386.8
threshold=116.50000000000001 202.50000000000003 55.500000000000007 246.50000000000003 168.50000000000003 84.500000000000014 33.500000000000007 138.50000000000003 185.50000000000003 279.50000000000006 226.50000000000003 103.50000000000001 72.500000000000014 161.50000000000003 135.50000000000003 21.500000000000004 182.50000000000003 44.500000000000007 246.50000000000003 230.50000000000003 206.50000000000003 192.50000000000003 153.50000000000003 105.50000000000001 182.50000000000003 70.500000000000014 117.50000000000001 165.50000000000003 261.50000000000006 291.50000000000006
decision_type=2 2 2 2 2 2 2 2 2 2 2 2 2 2 2 2 2 2 2 2 2 2 2 2 2 2 2 2 2 2
left_child=2 4 6 10 7 12 15 14 16 19 21 23 25 22 -2 -1 27 -8 -12 -5 -10 -3 -9 -7 -15 -4 -13 -6 -21 -11
right_child=1 3 5 9 8 11 17 13 20 29 18 26 -14 24 -16 -17 -18 -19 -20 28 -22 -23 -24 -25 -26 -27 -28 -29 -30 -31
leaf_value=-4.959314695120046 0.17499697489547544 3.67200450402719 -2.8762642658009812 5.619000931761482 2.0413287978395322 -1.4283065526253051 -3.949547602661275 1.3062971662684619 3.1880971869033798 7.4106049933523508 4.7956025021098485 -0.6997342656484109 -1.9501215716487257 1.9090440462281073 0.99255396620109426 -4.5244372787780582 2.9489444938652176 -3.3407843015455905 5.935423576298045 6.4915180770444199 3.7739143665020283 4.2740837370938269 1.6632523944738222 -0.82703050073220641 2.4695704753733865 -2.3648006240526835 -0.081597076715635403 2.5185769230695492 7.0424399944266884 8.0570899963378917
leaf_weight=2546 768 270 801 88 449 999 859 1314 989 212 428 499 769 1061 578 1751 682 719 134 284 429 1015 1062 239 242 324 224 577 396 256
leaf_count=2546 768 270 801 88 449 999 859 1314 989 212 428 499 769 1061 578 1751 682 719 134 284 429 1015 1062 239 242 324 224 577 396 256
internal_value=1.75777e-08 2.92906 -3.38182 5.49401 1.95891 -1.70213 -4.48398 1.35603 2.92802 7.08781 4.42745 -1.0158 -2.41274 1.65968 0.526073 -4.7821 2.56496 -3.67217 5.06737 6.67561 3.36533 4.14758 1.46585 -1.31223 2.01315 -2.72896 -0.508223 2.30972 6.81235 7.76424
internal_weight=20964 11234 9730 3083 8151 3855 5875 5025 3126 1236 1847 1961 1894 3679 1346 4297 1708 1578 562 768 1418 1285 2376 1238 1303 1125 723 1026 680 468
internal_count=20964 11234 9730 3083 8151 3855 5875 5025 3126 1236 1847 1961 1894 3679 1346 4297 1708 1578 562 768 1418 1285 2376 1238 1303 1125 723 1026 680 468
is_linear=0
shrinkage=0.05


Tree=2
num_leaves=31
num_cat=0
split_feature=2 2 2 2 2 2 2 2 2 2 2 1 2 1 2 2 1 1 1 1 1 1 1 1 1 0 2 2 1 0
split_gain=7.49682e+07 1.05288e+07 5.86825e+06 1.92071e+06 1.89191e+06 645079 460925 415629 370948 124410 119417 99456.2 92304.9 91710 77794.6 60760.4 55978.5 55428.1 49238.8 47862.2 40056.4 27908.8 23291.4 22606.4 18693.1 18468.5 18452.5 17496.7 16417 15900.7
threshold=112.50000000000001 202.50000000000003 52.500000000000007 160.50000000000003 246.50000000000003 80.500000000000014 135.50000000000003 30.500000000000004 181.50000000000003 279.50000000000006 226.50000000000003 168.50000000000003 96.500000000000014 138.50000000000003 66.500000000000014 39.500000000000007 150.50000000000003 192.50000000000003 21.500000000000004 246.50000000000003 230.50000000000003 192.50000000000003 113.50000000000001 72.500000000000014 279.50000000000006 160.50000000000003 170.50000000000003 291.50000000000006 119.50000000000001 94.500000000000014
decision_type=2 2 2 2 2 2 2 2 2 2 2 2 2 2 2 2 2 2 2 2 2 2 2 2 2 2 2 2 2 2
left_child=2 3 7 6 10 14 13 18 11 20 21 -5 29 28 -4 -9 -8 -10 -1 -12 -6 -3 -14 -16 -22 -18 -13 -11 -2 -7
right_child=1 4 5 8 9 12 16 15 17 27 19 26 22 -15 23 -17 25 -19 -20 -21 24 -23 -24 -25 -26 -27 -28 -29 -30 -31
leaf_value=-4.7247823261925088 -0.1822823052048842 3.4884042725739657 -2.7678720983965643 1.842511255418668 5.3380507897246972 -1.6116485397977041 1.1607219275570999 -3.9566579835928284 2.8680184947211984 7.040074344850936 4.5558224167779233 2.2501094846660075 -0.92091809954685555 0.95245826157264357 -2.3797854981160675 -3.3697529582912047 1.4605838438392955 3.4314647793924453 -4.3582014108752158 5.6386523524327075 6.3203770319620771 4.0603794536860702 -0.33524415140855129 -1.874173327949312 6.925795265646542 1.8036924363909645 2.65626771591571 7.654235798493028 0.22971137904199251 -1.2130149374616117
leaf_weight=2470 470 270 928 1220 88 665 1278 887 1006 212 428 474 701 373 419 877 940 771 1456 134 510 1015 224 468 170 673 682 256 498 401
leaf_count=2470 470 270 928 1220 88 665 1278 887 1006 212 428 474 701 373 419 877 940 771 1456 134 510 1015 224 468 170 673 682 256 498 401
internal_value=1.12424e-08 2.72081 -3.28583 1.80216 5.21931 -1.76607 1.05251 -4.30239 2.56607 6.73342 4.20608 2.1574 -1.14456 0.286346 -2.44784 -3.66487 1.4079 3.11249 -4.58883 4.81401 6.34183 3.9402 -0.77909 -2.11301 6.47173 1.60374 2.48973 7.37603 0.0296731 -1.46169
internal_weight=20964 11468 9496 8385 3083 3806 4232 5690 4153 1236 1847 2376 1991 1341 1815 1764 2891 1777 3926 562 768 1285 925 887 680 1613 1156 468 968 1066
internal_count=20964 11468 9496 8385 3083 3806 4232 5690 4153 1236 1847 2376 1991 1341 1815 1764 2891 1777 3926 562 768 1285 925 887 680 1613 1156 468 968 1066
is_linear=0
shrinkage=0.05


Tree=3
num_leaves=31
num_cat=0
split_feature=2 2 2 2 2 2 2 2 1 2 2 1 1 2 1 1 1 2 1 2 1 1 1 2 1 0 2 1 1 2
split_gain=6.76708e+07 9.10545e+06 5.87025e+06 1.70871e+06 1.55612e+06 703703 447401 375212 138876 134755 120484 91877.7 86660.2 84801.9 79346.7 63974.5 40200.4 39253 36449.4 35235 34656 34410.9 26747.5 26060 25187.7 20133.7 19137.4 19017.6 17926.4 15504.4
threshold=116.50000000000001 202.50000000000003 52.500000000000007 244.50000000000003 170.50000000000003 81.500000000000014 140.50000000000003 29.500000000000004 184.50000000000003 268.50000000000006 99.500000000000014 165.50000000000003 135.50000000000003 226.50000000000003 70.500000000000014 39.500000000000007 19.500000000000004 183.50000000000003 236.50000000000003 291.50000000000006 246.50000000000003 206.50000000000003 117.50000000000001 158.50000000000003 192.50000000000003 165.50000000000003 64.500000000000014 89.500000000000014 183.50000000000003 73.500000000000014
decision_type=2 2 2 2 2 2 2 2 2 2 2 2 2 2 2 2 2 2 2 2 2 2 2 2 2 2 2 2 2 2
left_child=2 4 7 13 6 14 12 16 17 18 27 23 -2 24 26 -9 -1 25 -5 -11 -15 -10 -12 -8 -3 -6 -4 -7 -13 -16
right_child=1 3 5 9 8 10 11 15 21 19 22 28 -14 20 29 -17 -18 -19 -20 -21 -22 -23 -24 -25 -26 -27 -28 -29 -30 -31
leaf_value=-4.5216114761514401 0.17459267026738157 3.3139840179019502 -2.7341074782259325 4.9451472562772265 1.8612172175619557 -1.5250957130106277 1.2752674831465016 -3.7752544414154672 2.8928450288538468 6.5405349278295537 -0.71777063775860839 1.8158893812461074 0.9327813742123473 4.2930187988281245 -2.1219223112418346 -3.1901687532628409 -4.1951905057609427 2.6724777793082874 5.9650114893913271 7.2715239856392149 5.3060936072162379 3.4305198565968933 -0.11527403762191535 1.6065965217577416 3.8573605032037634 2.349009026983786 -2.3162654671014526 -1.128337422986281 2.2822043500649625 -1.6624104475707151
leaf_weight=2074 802 270 680 108 363 559 1735 1033 998 463 700 841 711 400 379 853 1730 595 464 256 107 424 250 902 1015 507 459 657 273 356
leaf_count=2074 802 270 680 108 363 559 1735 1033 998 463 700 841 711 400 379 853 1730 595 464 256 107 424 250 902 1015 507 459 657 273 356
internal_value=5.03577e-09 2.64376 -3.05242 4.95834 1.76831 -1.59492 1.25668 -4.08727 2.70118 6.34517 -0.981119 1.54944 0.530886 3.95924 -2.30437 -3.51063 -4.37316 2.35952 5.77245 6.8008 4.50682 3.05316 -0.559219 1.3886 3.74319 2.14548 -2.56572 -1.31073 1.93017 -1.89936
internal_weight=20964 11234 9730 3083 8151 4040 5264 5690 2887 1291 2166 3751 1513 1792 1874 1886 3804 1465 572 719 507 1422 950 2637 1285 870 1139 1216 1114 735
internal_count=20964 11234 9730 3083 8151 4040 5264 5690 2887 1291 2166 3751 1513 1792 1874 1886 3804 1465 572 719 507 1422 950 2637 1285 870 1139 1216 1114 735
is_linear=0
shrinkage=0.05


Tree=4
num_leaves=31
num_cat=0
split_feature=2 2 2 2 2 2 1 2 1 2 2 2 1 2 1 2 2 1 2 1 1 1 0 1 1 1 1 0 1 2
split_gain=6.10729e+07 8.21856e+06 5.29852e+06 1.49358e+06 1.45228e+06 553682 426147 404414 133133 102185 90886.1 88141.1 82772.8 82261.1 80906.3 65382.2 49077.4 38763.3 38556.9 33046.4 30625.3 22359 21447.1 20798.7 19945.1 19032.9 18929.5 18186.4 17429.4 16566.8
threshold=116.50000000000001 203.50000000000003 55.500000000000007 246.50000000000003 170.50000000000003 84.500000000000014 33.500000000000007 141.50000000000003 185.50000000000003 279.50000000000006 226.50000000000003 103.50000000000001 129.50000000000003 72.500000000000014 163.50000000000003 21.500000000000004 39.500000000000007 246.50000000000003 183.50000000000003 230.50000000000003 206.50000000000003 101.50000000000001 131.50000000000003 188.50000000000003 135.50000000000003 67.500000000000014 183.50000000000003 165.50000000000003 119.50000000000001 261.50000000000006
decision_type=2 2 2 2 2 2 2 2 2 2 2 2 2 2 2 2 2 2 2 2 2 2 2 2 2 2 2 2 2 2
left_child=2 4 6 10 7 13 15 12 18 19 23 21 -2 25 24 -1 -8 -12 27 -5 -10 -7 -14 -3 -9 -4 -16 -6 -13 -21
right_child=1 3 5 9 8 11 16 14 20 -11 17 28 22 -15 26 -17 -18 -19 -20 29 -22 -23 -24 -25 -26 -27 -28 -29 -30 -31
leaf_value=-4.2683767905484862 0.08362476918200025 3.1038534440364938 -2.499699142023057 4.8112003633244473 1.7718980843849377 -1.2590144028427757 -3.4895146412933893 0.92714045537585354 2.7702193057748423 6.6602048858618126 4.1102941833923907 -0.58000385695998113 0.39956471726753828 -1.6705726606328093 1.7039746534145068 -3.8726889387180794 -2.9190941199660303 5.084776687622071 2.5522724676281681 5.5494922490187095 3.2694259996138069 -0.78549645103061994 0.95490317663017898 3.6648089629382627 1.3653408943978271 -2.0741001388958198 2.1746609542792772 2.2314265005815597 -0.025040391790125655 6.0499151075729216
leaf_weight=2503 634 197 707 88 365 892 621 296 973 468 428 530 229 769 995 1791 960 134 638 284 449 346 722 1025 2116 418 272 525 193 396
leaf_count=2503 634 197 707 88 365 892 621 296 973 468 428 530 229 769 995 1791 960 134 638 284 449 346 722 1025 2116 418 272 525 193 396
internal_value=1.25308e-08 2.51158 -2.8998 4.74193 1.69155 -1.4594 -3.84495 1.19385 2.57966 6.07782 3.8164 -0.870504 0.526157 -2.06913 1.48151 -4.10334 -3.14315 4.34264 2.25562 5.72293 2.92785 -1.12667 0.821178 3.57438 1.31157 -2.34157 1.80502 2.04297 -0.43186 5.84091
internal_weight=20964 11234 9730 3020 8214 3855 5875 5264 2950 1236 1784 1961 1585 1894 3679 4294 1581 562 1528 768 1422 1238 951 1222 2412 1125 1267 890 723 680
internal_count=20964 11234 9730 3020 8214 3855 5875 5264 2950 1236 1784 1961 1585 1894 3679 4294 1581 562 1528 768 1422 1238 951 1222 2412 1125 1267 890 723 680
is_linear=0
shrinkage=0.05


Tree=5
num_leaves=31
num_cat=0
split_feature=2 2 2 2 2 2 2 2 1 2 2 2 1 1 2 2 1 1 2 1 1 2 1 1 1 1 0 2 1 2
split_gain=5.51233e+07 7.75784e+06 4.3151e+06 1.64764e+06 1.20546e+06 499371 308454 285286 229699 110405 103345 76995.4 69059.3 56242.8 54029.9 50519.6 46925.7 34511.9 33971 33055.9 30492.6 30135.4 28895.8 18106.8 17909.8 16229.2 15465.8 14601.4 14323.3 13680.8
threshold=112.50000000000001 197.50000000000003 51.500000000000007 244.50000000000003 158.50000000000003 79.500000000000014 135.50000000000003 29.500000000000004 175.50000000000003 268.50000000000006 220.50000000000003 96.500000000000014 138.50000000000003 70.500000000000014 173.50000000000003 181.50000000000003 43.500000000000007 144.50000000000003 18.500000000000004 246.50000000000003 255.50000000000003 291.50000000000006 203.50000000000003 208.50000000000003 111.50000000000001 152.50000000000003 94.500000000000014 64.500000000000014 166.50000000000003 125.50000000000001
decision_type=2 2 2 2 2 2 2 2 2 2 2 2 2 2 2 2 2 2 2 2 2 2 2 2 2 2 2 2 2 2
left_child=2 4 7 10 6 13 12 18 14 20 22 26 29 27 25 -10 -9 -8 -1 -12 -5 -11 -3 -17 -13 -6 -7 -4 -19 -2
right_child=1 3 5 9 8 11 17 16 15 21 19 24 -14 -15 -16 23 -18 28 -20 -21 -22 -23 -24 -25 -26 -27 -28 -29 -30 -31
leaf_value=-4.0951734114184823 -0.12433885224528161 2.9869828088040675 -2.481444024016966 4.8046280871105571 1.3011936421905246 -1.4160778168802728 0.90737530317771642 -3.3622178330049888 2.1969551387984581 5.8989130914082537 3.7927283586005807 -0.80780253837064808 0.81946794715268045 -1.7613725064568921 2.0781103555745091 2.6008600015709873 -2.8183798094692394 1.2142600390420006 -3.7962771979524343 4.6819113162994386 5.5385392125447588 6.574937438499183 3.4411374607208103 3.0961039611271453 -0.32491535957464401 1.6640994210194493 -1.0343700285848365 -2.1145359906792081 1.5376063827505877 0.26571053035662207
leaf_weight=1940 613 697 746 257 455 736 828 1232 864 463 638 653 373 627 725 822 585 1324 1864 125 315 256 704 238 272 954 415 426 462 355
leaf_count=1940 613 697 746 257 455 736 828 1232 864 463 638 653 373 627 725 822 585 1324 1864 125 315 256 704 238 272 954 415 426 462 355
internal_value=-6.78587e-09 2.33307 -2.81757 4.31354 1.47913 -1.53386 0.857934 -3.70253 2.08457 5.7272 3.47019 -1.00548 0.241439 -2.1436 1.72738 2.48074 -3.18712 1.1742 -3.94871 3.9384 5.20879 6.13961 3.21519 2.71206 -0.665808 1.54691 -1.27845 -2.34808 1.2979 0.0187061
internal_weight=20964 11468 9496 3455 8013 3875 3955 5621 4058 1291 2164 2076 1341 1799 2134 1924 1817 2614 3804 763 572 719 1401 1060 925 1409 1151 1172 1786 968
internal_count=20964 11468 9496 3455 8013 3875 3955 5621 4058 1291 2164 2076 1341 1799 2134 1924 1817 2614 3804 763 572 719 1401 1060 925 1409 1151 1172 1786 968
is_linear=0
shrinkage=0.05


Tree=6
num_leaves=31
num_cat=0
split_feature=2 2 2 2 2 2 2 2 2 2 2 2 1 1 1 1 1 2 1 0 1 2 1 1 0 1 2 1 1 1
split_gain=4.97506e+07 6.70112e+06 4.31989e+06 1.256e+06 1.14747e+06 411500 398201 296477 136466 83870.1 82312.7 78916.4 66091 60206.5 56204.1 53459 39550 37175.6 35723.8 31506.9 28246.4 19639.5 19545.3 19443.8 16941.2 15424.2 15317.1 14796.3 14728.2 13118.6
threshold=116.50000000000001 202.50000000000003 57.500000000000007 246.50000000000003 167.50000000000003 88.500000000000014 34.500000000000007 140.50000000000003 182.50000000000003 279.50000000000006 73.500000000000014 226.50000000000003 129.50000000000003 24.500000000000004 111.50000000000001 166.50000000000003 168.50000000000003 46.500000000000007 192.50000000000003 242.50000000000003 230.50000000000003 103.50000000000001 135.50000000000003 187.50000000000003 131.50000000000003 279.50000000000006 16.500000000000004 291.50000000000006 70.500000000000014 82.500000000000014
decision_type=2 2 2 2 2 2 2 2 2 2 2 2 2 2 2 2 2 2 2 2 2 2 2 2 2 2 2 2 2 2
left_child=2 4 6 11 7 10 13 12 16 20 28 23 -2 26 21 22 -6 -8 -10 -13 -5 -7 -9 -3 -14 -22 -1 -11 -4 -12
right_child=1 3 5 9 8 14 17 15 18 27 29 19 24 -15 -16 -17 -18 -19 -20 -21 25 -23 -24 -25 -26 -27 -28 -29 -30 -31
leaf_value=-3.9363653038507374 0.055577238602187599 2.7536685907296121 -2.1949752338902302 4.3217043519020084 1.5974768264045478 -1.0185671734416084 -2.988455863215707 0.81174180671243645 2.3528242197405458 5.7854330637776261 -1.6073575004485532 3.6619992597479567 0.35238215786053079 -3.4187411387645414 -0.24060677928259949 1.6359649791978084 2.1157242096630142 -2.5025087017691536 2.8138674778916015 4.4620431095689206 5.1362173622729737 -0.58835074404293364 1.2312602632910628 3.2935079362572122 0.85392357928425033 5.6861591215694656 -3.7113455771203321 6.3599317366077059 -1.7977414881837541 -1.2380779045014423
leaf_weight=1439 619 197 721 88 622 858 880 317 957 282 497 380 225 1370 464 855 902 712 749 182 510 384 2236 1088 669 170 1594 186 345 466
leaf_count=1439 619 197 721 88 622 858 880 317 957 282 497 380 225 1370 464 855 902 712 749 182 510 384 2236 1088 669 170 1594 186 345 466
internal_value=-6.82678e-09 2.26684 -2.61724 4.25246 1.51581 -1.28249 -3.44881 1.03518 2.24807 5.48614 -1.76373 3.42689 0.452719 -3.69384 -0.71014 1.29377 1.90421 -2.77112 2.55524 3.92109 5.16462 -0.885553 1.17917 3.21075 0.727697 5.2737 -3.81811 6.01376 -2.06641 -1.42866
internal_weight=20964 11234 9730 3083 8151 3735 5995 4921 3230 1236 2029 1847 1513 4403 1706 3408 1524 1592 1706 562 768 1242 2553 1285 894 680 3033 468 1066 963
internal_count=20964 11234 9730 3083 8151 3735 5995 4921 3230 1236 2029 1847 1513 4403 1706 3408 1524 1592 1706 562 768 1242 2553 1285 894 680 3033 468 1066 963
is_linear=0
shrinkage=0.05


Tree=7
num_leaves=31
num_cat=0
split_feature=2 2 2 2 2 2 2 2 2 2 2 2 1 1 1 1 1 1 1 1 1 2 1 1 0 0 1 1 1 1
split_gain=4.49065e+07 6.46621e+06 3.32463e+06 1.34107e+06 1.06e+06 412935 249655 226868 198096 91540.6 84893 75118 52555.9 50645.3 46822.9 34735.6 28020.2 26143.5 26091.6 25855.4 24188.9 24125.4 21685.7 19311.6 17207.6 15760.7 15357.1 14385.8 13109 11559.4
threshold=110.50000000000001 197.50000000000003 49.500000000000007 244.50000000000003 153.50000000000003 73.500000000000014 174.50000000000003 128.50000000000003 28.500000000000004 268.50000000000006 220.50000000000003 93.500000000000014 178.50000000000003 138.50000000000003 185.50000000000003 35.500000000000007 246.50000000000003 19.500000000000004 291.50000000000006 259.50000000000006 203.50000000000003 63.500000000000007 127.50000000000001 152.50000000000003 116.50000000000001 144.50000000000003 208.50000000000003 72.500000000000014 110.50000000000001 220.50000000000003
decision_type=2 2 2 2 2 2 2 2 2 2 2 2 2 2 2 2 2 2 2 2 2 2 2 2 2 2 2 2 2 2
left_child=2 4 8 10 7 21 12 22 17 19 20 24 23 25 -8 -10 -12 -1 -11 29 -3 -4 -2 -6 27 -9 -16 -7 -13 -5
right_child=1 3 5 9 6 11 14 13 15 18 16 28 -14 -15 26 -17 -18 -19 -20 -21 -22 -23 -24 -25 -26 -27 -28 -29 -30 -31
leaf_value=-3.6935298725897763 -0.16870283107620898 2.6932775488200797 -2.2437180143523707 3.6490249572916236 1.1521425617485179 -1.6424752610337501 1.9779626162821105 0.37992620944444622 -3.1580875922375782 5.3436509109358923 3.4234288397253874 -0.80946311112244929 1.9409451661547839 1.0466220221509104 2.3335367523467818 -2.718764843192242 4.242087601363659 -3.4250810698117364 5.9956243686847861 5.0394727096014602 3.1087996702810585 -1.8469478667055377 0.32314453398711374 1.4721635950134404 -0.07462404020901385 0.88699633481755724 2.7738036505850481 -1.2230057847818125 -0.39325175697992565 4.5053544646403827
leaf_weight=2067 643 697 923 47 703 255 1079 476 889 497 638 750 490 1732 736 911 125 1616 222 281 704 655 344 1431 29 226 271 1030 253 244
leaf_count=2067 643 697 923 47 703 255 1079 476 889 497 638 750 490 1732 736 911 125 1616 222 281 704 655 344 1431 29 226 271 1030 253 244
internal_value=-1.3575e-09 2.08198 -2.57217 3.89405 1.312 -1.45519 1.79853 0.642134 -3.36564 5.16942 3.13319 -1.03033 1.47397 0.90142 2.20681 -2.93574 3.55755 -3.57574 5.54496 4.69738 2.90208 -2.07903 0.00272117 1.36674 -1.27906 0.543171 2.45202 -1.30625 -0.704477 4.36705
internal_weight=20964 11586 9378 3455 8131 3895 4710 3421 5483 1291 2164 2317 2624 2434 2086 1800 763 3683 719 572 1401 1578 987 2134 1314 702 1007 1285 1003 291
internal_count=20964 11586 9378 3455 8131 3895 4710 3421 5483 1291 2164 2317 2624 2434 2086 1800 763 3683 719 572 1401 1578 987 2134 1314 702 1007 1285 1003 291
is_linear=0
shrinkage=0.05


Tree=8
num_leaves=31
num_cat=0
split_feature=2 2 2 2 2 2 2 1 1 2 2 1 1 1 1 2 2 2 2 2 0 0 0 2 0 0 2 0 0 1
split_gain=4.05303e+07 5.46495e+06 3.51959e+06 989080 967393 422496 271559 235335 91374.4 78252.4 69784.1 63144.3 55366.6 55198.9 45392.5 40313.2 28209.3 28105.4 26833.4 26345 21567.9 18663.1 17308.7 15850.4 14827.1 14758.3 13852.6 12924.3 12819.2 12323.7
threshold=116.50000000000001 203.50000000000003 52.500000000000007 246.50000000000003 170.50000000000003 80.500000000000014 141.50000000000003 32.500000000000007 185.50000000000003 99.500000000000014 283.50000000000006 244.50000000000003 160.50000000000003 140.50000000000003 73.500000000000014 19.500000000000004 39.500000000000007 220.50000000000003 257.50000000000006 183.50000000000003 185.50000000000003 116.50000000000001 164.50000000000003 127.50000000000001 97.500000000000014 165.50000000000003 64.500000000000014 250.50000000000003 25.500000000000004 133.50000000000003
decision_type=2 2 2 2 2 2 2 2 2 2 2 2 2 2 2 2 2 2 2 2 2 2 2 2 2 2 2 2 2 2
left_child=2 4 7 11 6 14 13 15 19 24 18 17 29 23 26 -1 -9 -3 27 25 -10 -11 -14 -2 -7 -6 -4 -5 -17 -8
right_child=1 3 5 10 8 9 12 16 20 21 -12 -13 22 -15 -16 28 -18 -19 -20 -21 -22 -23 -24 -25 -26 -27 -28 -29 -30 -31
leaf_value=-3.5111729110812102 -0.0087109706870147161 2.8286844981559085 -2.1103208307886656 3.8923050322775112 1.4137658882518747 -1.1488672147988219 0.6999903084164294 -2.8561668919451413 2.0913906976527783 -0.57859684291156943 5.531108515640426 3.9326471431243828 1.2667611439155049 0.8000462010956142 -1.425535890236497 -3.3082803277502979 -2.4233660813542999 3.2582225707604398 4.8860034723142753 2.0789489916931596 2.5173527249911647 -0.10139952100498795 1.6044764840195076 0.39325205923158624 -0.78758996179233587 1.8277247851121992 -1.7744981497303762 4.6086562516954208 -3.0573009390354695 1.085697913207109
leaf_weight=2103 490 934 719 118 365 848 232 716 423 651 366 207 747 604 560 1186 794 643 617 638 999 299 771 491 427 525 536 135 891 1929
leaf_count=2103 490 934 719 118 365 848 232 716 423 651 366 207 747 604 560 1186 794 643 617 638 999 299 771 491 427 525 536 135 891 1929
internal_value=-1.15472e-08 2.04603 -2.36229 3.86477 1.37735 -1.23373 0.971139 -3.16359 2.10218 -0.771921 4.95187 3.1116 1.20686 0.424004 -1.79986 -3.35686 -2.62859 3.00382 4.70819 1.83374 2.39064 -0.428405 1.43829 0.192475 -1.02787 1.65796 -1.96689 4.27455 -3.20061 1.04429
internal_weight=20964 11234 9730 3020 8214 4040 5264 5690 2950 2225 1236 1784 3679 1585 1815 4180 1510 1577 870 1528 1422 950 1518 981 1275 890 1255 253 2077 2161
internal_count=20964 11234 9730 3020 8214 4040 5264 5690 2950 2225 1236 1784 3679 1585 1815 4180 1510 1577 870 1528 1422 950 1518 981 1275 890 1255 253 2077 2161
is_linear=0
shrinkage=0.05


Tree=9
num_leaves=31
num_cat=0
split_feature=2 2 1 2 2 2 2 1 1 2 2 2 2 2 2 1 2 2 1 2 1 1 2 1 0 1 0 1 1 0
split_gain=3.65857e+07 5.21817e+06 2.79145e+06 1.2663e+06 704169 301951 213689 174523 149956 98436.8 75404.8 48851.4 37204.6 34998.9 33391 32353.4 31404.5 30899.2 27480.4 22949.5 22818.3 22279 20834.5 14935.5 14522.3 13506.8 11291.8 10308.5 10085.3 9816.98
threshold=111.50000000000001 192.50000000000003 52.500000000000007 244.50000000000003 153.50000000000003 78.500000000000014 31.500000000000004 129.50000000000003 175.50000000000003 213.50000000000003 268.50000000000006 94.500000000000014 173.50000000000003 64.500000000000014 136.50000000000003 246.50000000000003 19.500000000000004 43.500000000000007 203.50000000000003 181.50000000000003 291.50000000000006 236.50000000000003 135.50000000000003 105.50000000000001 142.50000000000003 152.50000000000003 94.500000000000014 200.50000000000003 72.500000000000014 25.500000000000004
decision_type=2 2 2 2 2 2 2 2 2 2 2 2 2 2 2 2 2 2 2 2 2 2 2 2 2 2 2 2 2 2
left_child=2 4 6 9 7 13 16 22 12 18 21 26 25 -4 24 -11 -1 -8 -3 27 -12 -5 -2 -13 -9 -6 -7 -10 -15 -18
right_child=1 3 5 10 8 11 17 14 19 15 20 23 -14 28 -16 -17 29 -19 -20 -21 -22 -23 -24 -25 -26 -27 -28 -29 -30 -31
leaf_value=-3.3331436911919958 -0.083699783392155627 2.293014956917117 -1.9756811640690461 3.5909379005432132 1.0362580827639805 -1.1957365210705615 -2.7074406197772891 0.3079130192476644 1.6993313982908007 3.0015910705588102 4.8187339090005743 -0.74887400669092241 1.6488111660733684 -1.6881239106139774 0.94114451338763194 3.8199773467105369 -3.1497370607712689 -2.2670977965477976 2.7304172752380373 2.1427682048398249 5.4284412409808187 4.3882808629808761 0.49024625585245141 -0.35281872459846536 0.77589308759439501 1.31058754804918 -0.85173539260523146 2.161180889186725 -1.337296770781951 -2.9204950733184818
leaf_weight=2128 785 844 847 108 690 719 958 359 810 967 497 621 658 421 1709 138 1122 682 625 717 222 464 198 386 308 1283 357 142 399 800
leaf_count=2128 785 844 847 108 690 719 958 359 810 967 497 621 658 421 1709 138 1122 682 625 717 222 464 198 386 308 1283 357 142 399 800
internal_value=-1.49254e-09 1.89048 -2.30783 3.38823 1.13467 -1.24873 -3.00584 0.592229 1.5584 2.74728 4.66616 -0.847356 1.32323 -1.75026 0.824045 3.1038 -3.20082 -2.52432 2.47911 1.92913 5.00699 4.23773 0.0319068 -0.597059 0.524012 1.21465 -1.0816 1.76822 -1.51742 -3.05432
internal_weight=20964 11524 9440 3865 7659 3750 5690 3359 4300 2574 1291 2083 2631 1667 2376 1105 4050 1640 1469 1669 719 572 983 1007 667 1973 1076 952 820 1922
internal_count=20964 11524 9440 3865 7659 3750 5690 3359 4300 2574 1291 2083 2631 1667 2376 1105 4050 1640 1469 1669 719 572 983 1007 667 1973 1076 952 820 1922
is_linear=0
shrinkage=0.05


Tree=10
num_leaves=31
num_cat=0
split_feature=2 2 2 2 2 2 0 1 1 2 2 2 1 2 2 1 2 1 2 1 1 2 1 1 1 2 2 0 1 0
split_gain=3.30206e+07 4.7673e+06 2.44898e+06 1.14284e+06 665980 304034 174841 148810 128889 88839.2 68052.9 55310.2 37817.1 34493.8 34234.4 29198.9 28223 25635.7 21843.1 21018.1 18691.1 18539 15565.9 12670.2 12316.3 12171.4 11198.8 10175.8 9117.73 8532.59
threshold=110.50000000000001 192.50000000000003 49.500000000000007 244.50000000000003 148.50000000000003 73.500000000000014 173.50000000000003 27.500000000000004 138.50000000000003 213.50000000000003 268.50000000000006 92.500000000000014 165.50000000000003 170.50000000000003 126.50000000000001 246.50000000000003 38.500000000000007 192.50000000000003 293.50000000000006 259.50000000000006 66.500000000000014 18.500000000000004 200.50000000000003 124.50000000000001 82.500000000000014 174.50000000000003 160.50000000000003 144.50000000000003 220.50000000000003 145.50000000000003
decision_type=2 2 2 2 2 2 2 2 2 2 2 2 2 2 2 2 2 2 2 2 2 2 2 2 2 2 2 2 2 2
left_child=2 4 7 9 8 20 12 21 14 17 19 24 26 -8 -2 -11 -9 -3 -12 28 -4 -1 -15 -13 -7 -14 -6 -16 -5 -10
right_child=1 3 5 10 6 11 13 16 29 15 18 23 25 22 27 -17 -18 -19 -20 -21 -22 -23 -24 -25 -26 -27 -28 -29 -30 -31
leaf_value=-3.1868684257707027 -0.11400102459656658 2.0803886527659503 -1.9063996297545978 3.0903176084477852 0.94621693409489083 -1.2829032048543401 1.4721113437898139 -2.6808892575446195 0.63631585699408577 2.8515115119185541 4.5700470578114354 -0.66378637577090505 1.3094870021898306 1.8428306469790756 0.25966378691900427 3.6289785053419035 -2.2856413892833269 2.5139372217123799 5.1636737861464512 4.3342804192648243 -1.543701918307278 -2.9581114888687634 2.2608850674043626 0.061566592898452656 -0.96623696347903076 1.6774707898609453 1.1789004669718872 0.70300865194733664 3.8508471825083745 0.90096614140980558
leaf_weight=1872 765 538 1038 47 1079 564 585 1209 487 967 493 1015 691 1018 497 138 721 931 226 281 540 1681 285 64 674 333 993 175 244 813
leaf_count=1872 765 538 1038 47 1079 564 585 1209 487 967 493 1015 691 1018 497 138 721 931 226 281 540 1681 285 64 674 333 993 175 244 813
internal_value=5.6965e-09 1.78531 -2.20565 3.21882 1.06772 -1.247 1.41184 -2.88666 0.441081 2.60992 4.43285 -0.882436 1.18058 1.79107 0.114731 2.94861 -2.53323 2.35516 4.75664 4.02585 -1.78228 -3.07864 1.93427 -0.620763 -1.1105 1.42915 1.05773 0.375118 3.72801 0.801824
internal_weight=20964 11586 9378 3865 7721 3895 4984 5483 2737 2574 1291 2317 3096 1888 1437 1105 1930 1469 719 572 1578 3553 1303 1079 1238 1024 2072 672 291 1300
internal_count=20964 11586 9378 3865 7721 3895 4984 5483 2737 2574 1291 2317 3096 1888 1437 1105 1930 1469 719 572 1578 3553 1303 1079 1238 1024 2072 672 291 1300
is_linear=0
shrinkage=0.05


Tree=11
num_leaves=31
num_cat=0
split_feature=2 2 1 2 2 2 2 2 2 2 2 0 1 0 1 0 0 2 1 2 2 1 1 1 2 1 0 1 1 0
split_gain=2.98058e+07 4.02497e+06 2.59481e+06 725959 713970 310199 180392 174377 88241.9 53417.2 52660.4 48245.6 46456.9 42247.8 30752.9 30144.6 26776 24254 22782 21301.3 20703 19525.3 13083.2 12656.6 12300.7 12207.8 11879.8 11412.3 10817.2 10809.6
threshold=116.50000000000001 203.50000000000003 52.500000000000007 246.50000000000003 167.50000000000003 84.500000000000014 136.50000000000003 31.500000000000004 183.50000000000003 283.50000000000006 68.500000000000014 246.50000000000003 105.50000000000001 154.50000000000003 143.50000000000003 178.50000000000003 19.500000000000004 43.500000000000007 208.50000000000003 217.50000000000003 257.50000000000006 168.50000000000003 127.50000000000001 135.50000000000003 103.50000000000001 168.50000000000003 184.50000000000003 81.500000000000014 285.50000000000006 187.50000000000003
decision_type=2 2 2 2 2 2 2 2 2 2 2 2 2 2 2 2 2 2 2 2 2 2 2 2 2 2 2 2 2 2
left_child=2 4 7 11 6 10 14 16 15 20 -4 19 24 23 -2 25 -1 -9 26 -3 -5 -15 -14 -8 -7 -6 -10 -12 -22 -21
right_child=1 3 5 9 8 12 13 17 18 -11 27 -13 22 21 -16 -17 -18 -19 -20 29 28 -23 -24 -25 -26 -27 -28 -29 -30 -31
leaf_value=-3.0145088825801047 0.11192369293654603 2.3986327099712241 -1.7249422971145372 3.6526652336120606 1.151713371840823 -0.86555613002755261 0.51873960424047805 -2.4410717637653394 1.7409365425073255 4.75354262232129 -1.3518743117137062 3.3937829887165742 -0.37261973228042311 1.0262882375825795 0.69181586443943888 1.7493604323936549 -2.7572546149199866 -2.0509426762980798 2.3695459013460667 3.2840144438690011 4.0863467541433156 1.3703167699439642 0.20614920304298906 0.85935872448973327 -0.48944116074243466 1.5101795685858652 2.0419618163784401 -1.0036810176665003 4.6136206287983041 2.6978762223766335
leaf_weight=2089 879 814 1076 253 540 997 335 958 578 366 629 204 566 1334 309 653 1961 682 341 89 496 597 118 1467 278 424 757 376 121 677
leaf_count=2089 879 814 1076 253 540 997 335 958 578 366 629 204 566 1334 309 653 1961 682 341 89 496 597 118 1467 278 424 757 376 121 677
internal_value=-2.79267e-10 1.75458 -2.02579 3.31542 1.18071 -1.05677 0.799382 -2.71381 1.75057 4.24676 -1.48186 2.67016 -0.605207 0.970159 0.262754 1.48706 -2.88995 -2.27884 2.0048 2.57673 4.03356 1.13265 -0.272774 0.796036 -0.783548 1.30938 1.91163 -1.2216 4.18975 2.76598
internal_weight=20964 11234 9730 3020 8214 4040 4921 5690 3293 1236 2081 1784 1959 3733 1188 1617 4050 1640 1676 1580 870 1931 684 1802 1275 964 1335 1005 617 766
internal_count=20964 11234 9730 3020 8214 4040 4921 5690 3293 1236 2081 1784 1959 3733 1188 1617 4050 1640 1676 1580 870 1931 684 1802 1275 964 1335 1005 617 766
is_linear=0
shrinkage=0.05


Tree=12
num_leaves=31
num_cat=0
split_feature=2 2 2 2 2 2 1 0 1 2 2 2 1 2 2 1 1 1 2 1 0 1 0 2 0 1 0 2 2 2
split_gain=2.69011e+07 3.88765e+06 2.0001e+06 931912 546085 219383 146589 142319 104567 66637.1 63894.6 45440.9 30717.1 27462.8 27406.5 25233.3 21811.5 21486.6 20981.8 15707.4 13836 13761.5 13335.6 12159.9 10954.9 10358.1 10278.2 9952.03 9291.68 9063.35
threshold=110.50000000000001 192.50000000000003 51.500000000000007 242.50000000000003 148.50000000000003 73.500000000000014 32.500000000000007 173.50000000000003 129.50000000000003 261.50000000000006 213.50000000000003 92.500000000000014 165.50000000000003 170.50000000000003 23.500000000000004 287.50000000000006 191.50000000000003 238.50000000000003 125.50000000000001 44.500000000000007 255.50000000000003 67.500000000000014 205.50000000000003 127.50000000000001 127.50000000000001 124.50000000000001 113.50000000000001 172.50000000000003 160.50000000000003 295.50000000000006
decision_type=2 2 2 2 2 2 2 2 2 2 2 2 2 2 2 2 2 2 2 2 2 2 2 2 2 2 2 2 2 2
left_child=2 4 6 10 8 21 14 12 23 20 16 26 28 -9 -1 -11 -3 -12 -10 -8 -5 -4 -15 -2 -20 -13 -7 -14 -6 -17
right_child=1 3 5 9 7 11 19 13 18 15 17 25 27 22 -16 29 -18 -19 24 -21 -22 -23 -24 -25 -26 -27 -28 -29 -30 -31
leaf_value=-2.8252562331416895 -0.13661505684567229 1.8626253649570488 -1.6938325692758891 3.2022485047969234 0.85406626550967535 -1.0273723547974218 -2.2869099622485285 1.332550752142317 0.17012711689541382 4.0408062179428077 2.5280707290074051 -0.5981626289447981 1.170651569613111 1.6629582148485698 -2.5503650833431042 4.3872398553892626 2.2673220498469875 3.1048596073035619 0.27910073959118836 -1.9495859514680935 3.7574736625497991 -1.3680822059935296 2.0570737368726202 0.23243492456700224 0.73886184067142624 0.05767623331630603 -0.14584558448370766 1.4933086121082306 1.0660129734481922 4.9700002792778371
leaf_weight=2849 661 510 947 229 1079 1204 870 585 217 611 856 1015 644 1032 1330 172 959 199 143 572 220 493 271 337 1379 64 34 380 993 109
leaf_count=2849 661 510 947 229 1079 1204 870 585 217 611 856 1015 644 1032 1330 172 959 199 143 572 220 493 271 337 1379 64 34 380 993 109
internal_value=-1.78035e-09 1.61141 -1.99081 2.90593 0.963395 -1.09765 -2.58778 1.27501 0.395962 3.97109 2.34001 -0.796443 1.06636 1.61715 -2.73777 4.22115 2.12682 2.63687 0.630086 -2.1531 3.4743 -1.58231 1.74493 -0.011996 0.695665 -0.559262 -1.00316 1.29039 0.955641 4.61329
internal_weight=20964 11586 9378 3865 7721 3757 5621 4984 2737 1341 2524 2317 3096 1888 4179 892 1469 1055 1739 1442 449 1440 1303 998 1522 1079 1238 1024 2072 281
internal_count=20964 11586 9378 3865 7721 3757 5621 4984 2737 1341 2524 2317 3096 1888 4179 892 1469 1055 1739 1442 449 1440 1303 998 1522 1079 1238 1024 2072 281
is_linear=0
shrinkage=0.05


Tree=13
num_leaves=31
num_cat=0
split_feature=2 2 2 2 2 2 1 1 0 1 2 1 1 2 1 1 2 2 0 2 0 2 1 0 0 1 2 0 2 2
split_gain=2.42803e+07 3.28328e+06 2.12071e+06 721510 477310 201045 200705 106940 91186.3 53420.5 47235.1 39881 30405.8 28924.8 28274 24578.5 22199.8 20491.3 20363.4 19431.8 19220.7 17890.4 15983.9 12892.9 11810.4 10529.5 9670.88 9331.17 8958.71 8669.64
threshold=116.50000000000001 197.50000000000003 57.500000000000007 244.50000000000003 160.50000000000003 88.500000000000014 33.500000000000007 138.50000000000003 178.50000000000003 270.50000000000006 220.50000000000003 72.500000000000014 111.50000000000001 135.50000000000003 19.500000000000004 165.50000000000003 42.500000000000007 295.50000000000006 205.50000000000003 261.50000000000006 240.50000000000003 143.50000000000003 176.50000000000003 187.50000000000003 156.50000000000003 203.50000000000003 103.50000000000001 143.50000000000003 182.50000000000003 27.500000000000004
decision_type=2 2 2 2 2 2 2 2 2 2 2 2 2 2 2 2 2 2 2 2 2 2 2 2 2 2 2 2 2 2
left_child=2 4 6 10 7 11 14 13 15 19 22 -4 26 -2 -1 -6 -8 -11 28 -5 23 -9 -3 -12 -24 -26 -7 -14 -10 -16
right_child=1 3 5 9 8 12 16 21 18 17 20 -13 27 -15 29 -17 -18 -19 -20 -21 -22 -23 24 -25 25 -27 -28 -29 -30 -31
leaf_value=-2.7225743045036062 0.0556892906186136 1.6054234049116918 -1.4528903186688886 3.1818202376365665 1.0290946723392667 -0.71550273777339568 -2.1488356444143482 0.61422054915919477 1.4633783560129987 3.9514333862661051 3.1437960767745974 -1.0095330118331074 -0.2035270592628273 0.53823903138186302 -2.5415303203141542 1.3730890905568294 -1.7861412922198008 4.5850723887852265 1.9898704528383857 3.7325614333494346 3.0620172664917336 0.89426388252741629 3.3949685549736026 2.3959970295663431 2.0061901620448395 2.2984115400745044 -0.41360871444339864 0.75427198487299463 1.7282868862495784 -2.3335461333564456
leaf_weight=2128 748 129 1007 296 1079 858 775 814 673 471 65 1022 437 531 1379 1001 926 175 421 349 189 1905 20 509 549 703 384 27 607 787
leaf_count=2128 748 129 1007 296 1079 858 775 814 673 471 65 1022 437 531 1379 1001 926 175 421 349 189 1905 20 509 549 703 384 27 607 787
internal_value=-1.89964e-09 1.58361 -1.8284 2.86622 1.01395 -0.893201 -2.41105 0.633069 1.41669 3.8017 2.30814 -1.22957 -0.493144 0.256029 -2.59313 1.19464 -1.95139 4.12308 1.68822 3.47982 2.62468 0.810426 2.13575 2.48068 2.18953 2.17027 -0.622164 -0.147793 1.589 -2.46596
internal_weight=20964 11234 9730 3455 7779 3735 5995 3998 3781 1291 2164 2029 1706 1279 4294 2080 1701 646 1701 645 763 2719 1401 574 1272 1252 1242 464 1280 2166
internal_count=20964 11234 9730 3455 7779 3735 5995 3998 3781 1291 2164 2029 1706 1279 4294 2080 1701 646 1701 645 763 2719 1401 574 1272 1252 1242 464 1280 2166
is_linear=0
shrinkage=0.05


Tree=14
num_leaves=31
num_cat=0
split_feature=2 2 2 2 2 1 2 2 1 1 1 0 1 0 0 1 2 2 1 2 1 1 2 0 2 2 0 1 0 1
split_gain=2.19163e+07 2.87615e+06 2.05042e+06 533511 489688 222652 171631 117607 53304 41633.9 37458.9 33674.4 33030.3 31605.3 29463.3 26213.3 23463 21164.1 14181.4 13289.2 13189.7 12705.2 12568.9 10706.8 9994.25 9630.05 9425.25 11331.7 9044.59 8107.27
threshold=119.50000000000001 203.50000000000003 60.500000000000007 246.50000000000003 170.50000000000003 35.500000000000007 88.500000000000014 142.50000000000003 184.50000000000003 259.50000000000006 238.50000000000003 111.50000000000001 157.50000000000003 22.500000000000004 131.50000000000003 72.500000000000014 293.50000000000006 46.500000000000007 208.50000000000003 183.50000000000003 220.50000000000003 182.50000000000003 220.50000000000003 187.50000000000003 99.500000000000014 229.50000000000003 156.50000000000003 187.50000000000003 165.50000000000003 119.50000000000001
decision_type=2 2 2 2 2 2 2 2 2 2 2 2 2 2 2 2 2 2 2 2 2 2 2 2 2 2 2 2 2 2
left_child=2 4 5 10 7 13 15 14 19 20 22 24 -9 -1 -2 -4 -11 -7 -10 28 -5 -14 26 -24 -8 -12 -3 -28 -6 -13
right_child=1 3 6 9 8 17 11 12 18 16 25 29 21 -15 -16 -17 -18 -19 -20 -21 -22 -23 23 -25 -26 -27 27 -29 -30 -31
leaf_value=-2.5562512371080088 0.10033669788127837 2.9440872351328533 -1.3338678216408772 2.3995592160658403 1.0193651206811916 -1.9631526998295841 -0.72109353658455722 0.74576135269151678 1.6650183295564496 3.6866393667073427 2.4531596937750142 -0.29093135112138879 0.99024196453557911 -2.2849927730656958 0.54840304508344084 -0.95040715267732745 4.2933128509163296 -1.6129136393987524 2.013068677085653 1.5145727619329641 3.3186429198766718 1.3514532797217165 2.975165264021892 2.2942287715484007 -0.43823313053045737 3.0371320899952665 1.6268684661042863 2.1203944574679072 1.3463042022563829 0.075966727825322461
leaf_weight=2716 603 30 804 44 363 830 656 1806 1069 633 117 354 1464 1776 937 1000 213 898 403 608 346 292 65 516 596 178 138 740 507 262
leaf_count=2716 603 30 804 44 363 830 656 1806 1069 633 117 354 1464 1776 937 1000 213 898 403 608 346 292 65 516 596 178 138 740 507 262
internal_value=1.15177e-10 1.52808 -1.71036 2.84394 1.03455 -2.26346 -0.773461 0.738052 1.54733 3.64235 2.29078 -0.437533 0.895897 -2.449 0.372959 -1.12131 3.83938 -1.78114 1.76031 1.33523 3.21495 1.05031 2.1888 2.37041 -0.586441 2.80552 2.0726 2.04282 1.20989 -0.134881
internal_weight=20964 11072 9892 3020 8052 6220 3672 5102 2950 1236 1784 1868 3562 4492 1540 1804 846 1728 1472 1478 390 1756 1489 581 1252 295 908 878 870 616
internal_count=20964 11072 9892 3020 8052 6220 3672 5102 2950 1236 1784 1868 3562 4492 1540 1804 846 1728 1472 1478 390 1756 1489 581 1252 295 908 878 870 616
is_linear=0
shrinkage=0.05


Tree=15
num_leaves=31
num_cat=0
split_feature=1 2 2 2 2 2 2 2 1 1 2 2 1 1 0 2 2 0 2 2 1 2 1 2 0 1 1 1 0 2
split_gain=1.97878e+07 2.79792e+06 1.5632e+06 567099 459829 178029 118709 114593 90557.3 44336.8 36288.1 34097.5 23010.3 22619.1 22354.7 21150.2 18347.4 18232.6 16719.9 16697 15757.8 14893.9 13922.8 10732.4 9790.34 8905.04 8800.09 8081.62 7695.88 7609.8
threshold=112.50000000000001 198.50000000000003 52.500000000000007 244.50000000000003 158.50000000000003 80.500000000000014 28.500000000000004 129.50000000000003 175.50000000000003 270.50000000000006 226.50000000000003 105.50000000000001 43.500000000000007 144.50000000000003 205.50000000000003 66.500000000000014 173.50000000000003 142.50000000000003 259.50000000000006 295.50000000000006 187.50000000000003 16.500000000000004 234.50000000000003 182.50000000000003 160.50000000000003 89.500000000000014 152.50000000000003 230.50000000000003 85.500000000000014 108.50000000000001
decision_type=2 2 2 2 2 2 2 2 2 2 2 2 2 2 2 2 2 2 2 2 2 2 2 2 2 2 2 2 2 2
left_child=2 4 6 10 7 15 21 17 16 18 20 25 -8 -9 23 -4 26 29 -5 -11 -3 -1 -12 -10 -15 -7 -6 -20 -17 -2
right_child=1 3 5 9 8 11 12 13 14 19 22 -13 -14 24 -16 28 -18 -19 27 -21 -22 -23 -24 -25 -26 -27 -28 -29 -30 -31
leaf_value=-2.5010160502136731 -0.33209681807772112 1.6402466471630632 -1.4298576641265817 2.8380839424663122 0.75025360738932434 -0.83610806605385413 -2.0196733714897959 0.47520488472516481 1.2923361432652687 3.5691797246345796 2.2606993445517527 -0.23443961975592523 -1.6568522498961742 0.68182657020005 1.8271610357270522 -1.1676375078916812 1.2389620944792155 0.52572641777173601 2.6823748934268954 4.1411530445643834 2.0527854125502727 -2.2968625485040439 2.8008704009155436 1.5544994200727396 0.91756307726127029 -0.58915686616158625 1.0176852838753232 3.4343135372560418 -0.81423592808558132 0.02877844919898559
leaf_weight=1525 190 282 928 270 454 675 1364 1039 813 471 315 529 643 1257 425 682 740 162 40 175 1292 2157 192 751 678 795 954 335 199 632
leaf_count=1525 190 282 928 270 454 675 1364 1039 813 471 315 529 643 1257 425 682 740 162 40 175 1292 2157 192 751 678 795 954 335 199 632
internal_value=3.09631e-09 1.39798 -1.68797 2.60809 0.8939 -0.903897 -2.21279 0.50863 1.2625 3.43134 2.09737 -0.578675 -1.90343 0.663383 1.5056 -1.26328 1.03739 0.0409119 3.1381 3.72413 1.97887 -2.38142 2.46526 1.41822 0.764426 -0.702553 0.931454 3.35411 -1.08781 -0.0546355
internal_weight=20964 11467 9497 3372 8095 3808 5689 3958 4137 1291 2081 1999 2007 2974 1989 1809 2148 984 645 646 1574 3682 507 1564 1935 1470 1408 375 881 822
internal_count=20964 11467 9497 3372 8095 3808 5689 3958 4137 1291 2081 1999 2007 2974 1989 1809 2148 984 645 646 1574 3682 507 1564 1935 1470 1408 375 881 822
is_linear=0
shrinkage=0.05


Tree=16
num_leaves=31
num_cat=0
split_feature=1 2 1 2 2 2 0 2 0 2 2 2 1 1 2 1 2 1 1 1 1 1 1 1 0 1 2 2 0 1
split_gain=1.78585e+07 2.52577e+06 1.41172e+06 616940 334983 160759 107205 83606.9 77179 46174.3 43313.6 33743.5 22751.2 21845.1 20735.4 16992.8 16799.1 16110.7 15568.5 15445.3 15053.5 14456.4 14057.5 9699.96 7874.3 8106.98 7491.43 6714.86 6653.81 6541.69
threshold=112.50000000000001 192.50000000000003 52.500000000000007 242.50000000000003 153.50000000000003 78.500000000000014 29.500000000000004 125.50000000000001 178.50000000000003 268.50000000000006 213.50000000000003 103.50000000000001 168.50000000000003 143.50000000000003 39.500000000000007 253.50000000000003 64.500000000000014 203.50000000000003 21.500000000000004 232.50000000000003 300.50000000000006 185.50000000000003 159.50000000000003 89.500000000000014 158.50000000000003 177.50000000000003 136.50000000000003 165.50000000000003 298.50000000000006 153.50000000000003
decision_type=2 2 2 2 2 2 2 2 2 2 2 2 2 2 2 2 2 2 2 2 2 2 2 2 2 2 2 2 2 2
left_child=2 4 6 10 7 16 18 22 12 19 17 23 29 26 -8 -12 -4 24 -1 -5 -11 27 -2 -7 -3 -26 -9 -10 -21 -6
right_child=1 3 5 9 8 11 14 13 21 20 15 -13 -14 -15 -16 -17 -18 -19 -20 28 -22 -23 -24 -25 25 -27 -28 -29 -30 -31
leaf_value=-2.3306547691762471 -0.060951881240233013 2.1058316230691752 -1.3833310185383398 2.3999123629824868 0.72600628253578403 -0.82174153715900844 -1.9432682599519429 0.21274260491818975 0.94101548411283842 3.4036749652740532 2.0960859074258269 -0.25818773232844777 1.1318961092930637 0.6817659733679281 -1.6101714798149009 2.8629776435020644 -1.0653521845920706 1.9250447336989642 -2.1195543244985098 2.9991278994132871 4.0073518335342406 1.5357309641284205 1.2816971233487129 -0.57009814859538921 1.2238545477010643 1.6262727825408818 0.49211583199378639 1.3041031233615905 3.8521324872970584 0.91612654844362573
leaf_weight=2441 772 68 846 116 810 775 1045 399 163 594 977 612 967 1515 845 78 816 625 1360 482 125 749 20 757 157 617 602 582 24 1025
leaf_count=2441 772 68 846 116 810 775 1045 399 163 594 977 612 967 1515 845 78 816 625 1360 482 125 749 20 757 157 617 602 582 24 1025
internal_value=-1.4937e-09 1.32808 -1.60357 2.3692 0.799167 -0.858132 -2.1021 0.420977 1.09038 3.23574 1.90844 -0.572027 0.935631 0.562009 -1.79434 2.15279 -1.22721 1.73272 -2.25512 2.92029 3.50863 1.38061 -0.0270466 -0.697398 1.58997 1.54465 0.380757 1.22466 3.03959 0.832204
internal_weight=20964 11467 9497 3863 7604 3806 5691 3308 4296 1341 2522 2144 2802 2516 1890 1055 1662 1467 3801 622 719 1494 792 1532 842 774 1001 745 506 1835
internal_count=20964 11467 9497 3863 7604 3806 5691 3308 4296 1341 2522 2144 2802 2516 1890 1055 1662 1467 3801 622 719 1494 792 1532 842 774 1001 745 506 1835
is_linear=0
shrinkage=0.05


Tree=17
num_leaves=31
num_cat=0
split_feature=2 2 1 2 2 1 2 2 1 0 0 2 2 0 0 0 1 2 0 1 1 1 0 2 1 1 2 0 1 2
split_gain=1.61228e+07 2.11711e+06 1.5116e+06 391908 362547 177860 112514 87521.3 44328.2 39707 36009.3 29312.8 25504.6 25100.3 22325.4 22157.5 13878.6 13169.4 12958.4 11587.2 10123.2 10096.5 10296.7 9833.24 9667.52 9198.96 7188.47 9372.93 6410.15 6327.79
threshold=119.50000000000001 203.50000000000003 54.500000000000007 250.50000000000003 170.50000000000003 84.500000000000014 34.500000000000007 142.50000000000003 238.50000000000003 185.50000000000003 111.50000000000001 73.500000000000014 283.50000000000006 160.50000000000003 22.500000000000004 131.50000000000003 169.50000000000003 95.500000000000014 151.50000000000003 188.50000000000003 183.50000000000003 188.50000000000003 166.50000000000003 229.50000000000003 279.50000000000006 44.500000000000007 220.50000000000003 187.50000000000003 255.50000000000003 46.500000000000007
decision_type=2 2 2 2 2 2 2 2 2 2 2 2 2 2 2 2 2 2 2 2 2 2 2 2 2 2 2 2 2 2
left_child=2 4 6 8 7 11 14 15 21 16 17 29 24 -9 -1 -2 -6 -7 -12 -11 -15 -3 -23 -10 -5 -8 -24 -28 -14 -4
right_child=1 3 5 12 9 10 25 13 23 19 18 -13 28 20 -16 -17 -18 -19 -20 -21 -22 22 26 -25 -26 -27 27 -29 -30 -31
leaf_value=-2.1990759507688429 0.080720987491260221 1.5684625657541413 -1.6101993008415301 2.9035824210406198 0.96871362471772793 -0.69072705168373438 -1.7079206305785986 0.65354647792781229 2.1088404251978949 1.3286283981488196 -0.14230356689716389 -0.83634717299694739 2.6699514320918496 0.86580317822735031 -1.9673743335577527 0.46928495929368719 1.2759363624436166 -0.39360655790721549 1.0192130773961545 1.6251710762131784 1.2184156009611822 2.9369433822631841 1.8087823049833489 2.6628221162176864 3.3047078679829109 -1.4510136924622676 2.7763321213605927 1.9901940557159603 3.5697087104078657 -1.1961619524327014
leaf_weight=2699 603 224 101 562 620 768 818 2039 117 516 608 781 21 1281 1691 937 903 725 25 911 242 25 722 254 205 607 41 504 345 1069
leaf_count=2699 603 224 101 562 620 768 818 2039 117 516 608 781 21 1281 1691 937 903 725 25 911 242 25 722 254 205 607 41 504 345 1069
internal_value=-3.44865e-09 1.31064 -1.46698 2.43959 0.887208 -0.72882 -1.98452 0.632091 1.99824 1.32843 -0.412457 -1.07356 3.17467 0.768257 -2.10983 0.317139 1.15087 -0.546445 -0.0964301 1.51794 0.921832 1.87836 1.93208 2.48812 3.01079 -1.59849 1.91226 2.04933 3.51808 -1.2319
internal_weight=20964 11072 9892 3020 8052 4077 5815 5102 1887 2950 2126 1951 1133 3562 4390 1540 1523 1493 633 1427 1523 1516 1292 371 767 1425 1267 545 366 1170
internal_count=20964 11072 9892 3020 8052 4077 5815 5102 1887 2950 2126 1951 1133 3562 4390 1540 1523 1493 633 1427 1523 1516 1292 371 767 1425 1267 545 366 1170
is_linear=0
shrinkage=0.05


Tree=18
num_leaves=31
num_cat=0
split_feature=1 2 2 2 2 2 0 2 1 2 2 2 1 1 1 1 2 1 1 0 2 1 0 2 0 2 1 1 2 0
split_gain=1.45557e+07 2.08464e+06 1.12312e+06 501929 284387 143847 74025.7 71121 64193.9 44884.3 30575.9 26340.9 17353.8 16593.9 16109.7 14980.9 14038.9 13615.9 13014.6 11575.2 10893.8 10059.9 8457.27 8068.58 7007.69 6853.56 6776.21 6709.65 6616.92 6565.31
threshold=111.50000000000001 192.50000000000003 49.500000000000007 240.50000000000003 150.50000000000003 78.500000000000014 173.50000000000003 27.500000000000004 135.50000000000003 261.50000000000006 213.50000000000003 99.500000000000014 168.50000000000003 287.50000000000006 64.500000000000014 185.50000000000003 127.50000000000001 205.50000000000003 33.500000000000007 250.50000000000003 16.500000000000004 244.50000000000003 124.50000000000001 132.50000000000003 156.50000000000003 319.50000000000006 176.50000000000003 230.50000000000003 167.50000000000003 215.50000000000003
decision_type=2 2 2 2 2 2 2 2 2 2 2 2 2 2 2 2 2 2 2 2 2 2 2 2 2 2 2 2 2 2
left_child=2 4 7 10 8 14 12 20 16 19 17 -7 -6 27 -4 28 -2 24 -9 -5 -1 29 -10 -13 -3 -15 -26 -11 -8 -12
right_child=1 3 5 9 6 11 15 18 22 13 21 23 -14 25 -16 -17 -18 -19 -20 -21 -22 -23 -24 -25 26 -27 -28 -29 -30 -31
leaf_value=-2.1524312848106759 -0.084948732882038053 1.9608523758464174 -1.2715900092931884 2.2712929592398576 0.71911746394298814 -0.66177761011368108 0.88854603829333589 -1.8197898393778562 0.078929207549251701 2.2717995668902544 1.9846770145770538 -0.33083173490775691 0.99346601828648362 3.3540272545721743 -0.9770565517787424 1.3570838708523771 0.2591183196000319 1.7554678165855813 -1.558020311595401 2.7526876824770792 -1.9756407196042109 2.3601728513709501 0.55514551321377081 0.39905657440423969 1.1001896369477246 4.2375325679779055 1.4724897172039046 3.0048262945508464 1.1602726773541361 1.7097841071455104
leaf_weight=1525 737 61 989 242 2069 1346 332 853 99 33 507 709 799 257 875 839 496 577 1071 258 2033 117 1600 40 149 24 680 578 689 380
leaf_count=1525 737 61 989 242 2069 1346 332 853 99 33 507 709 799 257 875 839 496 577 1071 258 2033 117 1600 40 149 24 680 578 689 380
internal_value=8.58808e-10 1.19255 -1.45554 2.13956 0.714963 -0.813811 0.954876 -1.91898 0.328091 2.89892 1.71179 -0.529523 0.795549 3.11149 -1.13333 1.20055 0.0534594 1.56628 -1.67408 2.51969 -2.05142 1.92439 0.527397 -0.291852 1.44363 3.42949 1.40557 2.96524 1.07191 1.86691
internal_weight=20964 11523 9441 3863 7660 3959 4728 5482 2932 1392 2471 2095 2868 892 1864 1860 1233 1467 1924 500 3558 1004 1699 749 890 281 829 611 1021 887
internal_count=20964 11523 9441 3863 7660 3959 4728 5482 2932 1392 2471 2095 2868 892 1864 1860 1233 1467 1924 500 3558 1004 1699 749 890 281 829 611 1021 887
is_linear=0
shrinkage=0.05


Tree=19
num_leaves=31
num_cat=0
split_feature=2 2 1 2 2 1 0 0 1 1 2 0 2 1 2 1 1 2 2 2 1 0 1 2 0 1 2 2 0 0
split_gain=1.31419e+07 1.90832e+06 983593 452012 270557 105045 79968.3 72994.3 53131.7 41057.4 27258.1 21850.5 18502.4 16088.4 15229 14532.2 13845.8 13410 13077.8 12751 11555.8 10484 10055.6 9006.39 8379.56 8174.97 7366.38 6389.9 6002.38 5562.51
threshold=110.50000000000001 192.50000000000003 52.500000000000007 240.50000000000003 148.50000000000003 76.500000000000014 30.500000000000004 171.50000000000003 127.50000000000001 257.50000000000006 212.50000000000003 96.500000000000014 291.50000000000006 192.50000000000003 174.50000000000003 135.50000000000003 21.500000000000004 40.500000000000007 125.50000000000001 66.500000000000014 205.50000000000003 253.50000000000003 218.50000000000003 180.50000000000003 122.50000000000001 153.50000000000003 94.500000000000014 259.50000000000006 186.50000000000003 255.50000000000003
decision_type=2 2 2 2 2 2 2 2 2 2 2 2 2 2 2 2 2 2 2 2 2 2 2 2 2 2 2 2 2 2
left_child=2 4 6 10 8 19 16 14 -2 22 20 26 -11 23 25 -13 -1 -8 -10 -4 -3 28 -5 -9 -20 -6 -7 29 -12 -24
right_child=1 3 5 9 7 11 17 13 18 12 21 15 -14 -15 -16 -17 -18 -19 24 -21 -22 -23 27 -25 -26 -27 -28 -29 -30 -31
leaf_value=-2.0019612595123975 -0.036973916325855991 1.3704991600276406 -1.1974655171527047 1.8496395941678578 0.57120972934902092 -0.73849486815394416 -1.6471566043166341 0.94401257609083822 0.095202291665306804 2.8119423731831854 2.1136978156211081 -0.36958476531768258 3.317408129464277 1.3407455413076443 0.98447098684616197 0.99373018354177478 -1.8077168662785994 -1.3698363776611702 0.042800837803152532 -0.90728606723714622 1.6636603532945959 2.3488363160643466 2.1039638796298625 1.2066408653094116 0.51366646457361786 0.75716087278779376 -0.47068312825093978 2.6969090165391485 1.727509942946384 2.6405902334161708
leaf_weight=2460 919 867 867 77 1013 908 985 982 252 678 114 863 247 588 493 20 1463 782 101 672 549 86 139 489 1465 1419 358 177 857 74
leaf_count=2460 919 867 867 77 1013 908 985 982 252 678 114 863 247 588 493 20 1463 782 101 672 549 86 139 489 1465 1419 358 177 857 74
internal_value=9.00526e-10 1.12629 -1.39147 2.03326 0.67228 -0.755432 -1.80372 0.891617 0.272874 2.75397 1.62758 -0.529611 2.94692 1.11968 0.731074 -0.338706 -1.92952 -1.52443 0.429502 -1.07076 1.48416 1.81971 2.3718 1.03132 0.483298 0.679707 -0.662763 2.47489 1.77285 2.2904
internal_weight=20964 11586 9378 3865 7721 3688 5690 4984 2737 1392 2473 2149 925 2059 2925 883 3923 1767 1818 1539 1416 1057 467 1471 1566 2432 1266 390 971 213
internal_count=20964 11586 9378 3865 7721 3688 5690 4984 2737 1392 2473 2149 925 2059 2925 883 3923 1767 1818 1539 1416 1057 467 1471 1566 2432 1266 390 971 213
is_linear=0
shrinkage=0.05


Tree=20
num_leaves=31
num_cat=0
split_feature=1 2 2 2 2 2 1 2 2 2 2 2 2 1 1 1 0 1 1 0 0 0 0 1 0 2 0 1 2 1
split_gain=1.1863e+07 1.69718e+06 915790 339650 288750 106172 80126.3 68291.6 48118.4 27728.3 25088.5 21731.3 18686.2 17101.8 14648.4 13545.1 12173.9 11734 11651.4 11437.5 11327.9 9375.45 8106.15 8082.49 6106.88 5908.4 5903.76 5641.57 5543.88 5478.3
threshold=111.50000000000001 198.50000000000003 51.500000000000007 246.50000000000003 160.50000000000003 80.500000000000014 138.50000000000003 27.500000000000004 181.50000000000003 226.50000000000003 279.50000000000006 126.50000000000001 105.50000000000001 168.50000000000003 74.500000000000014 40.500000000000007 205.50000000000003 157.50000000000003 176.50000000000003 285.50000000000006 242.50000000000003 17.500000000000004 157.50000000000003 230.50000000000003 144.50000000000003 141.50000000000003 187.50000000000003 298.50000000000006 132.50000000000003 50.500000000000007
decision_type=2 2 2 2 2 2 2 2 2 2 2 2 2 2 2 2 2 2 2 2 2 2 2 2 2 2 2 2 2 2
left_child=2 4 7 9 6 14 11 21 13 18 19 -2 -7 -6 29 -9 -10 25 -3 23 26 -1 -20 -5 -13 -8 -11 -12 -14 -4
right_child=1 3 5 10 8 12 17 15 16 20 27 24 28 -15 -16 -17 -18 -19 22 -21 -22 -23 -24 -25 -26 -27 -28 -29 -30 -31
leaf_value=-1.9397448717468029 -0.075407565147726563 1.0483811912520242 -1.281173175219962 1.9683580190809662 0.72967374828532816 -0.5478487729510555 0.33668847975475114 -1.5875060009340853 1.1425911115737573 2.3590282809734346 2.8652098527275069 0.19972405433474297 -0.24106913429205853 0.99816397790178313 -0.75921978576252103 -1.3207378126710854 1.4772474114746688 0.6862667563391347 2.5215394461019471 2.9457283214824956 2.264163847349502 -1.7770276091775452 1.5544477673609352 2.4890337950068533 0.4942883346822769 0.54355011698020284 1.7168482267768945 3.2606446258357318 0.37311603263020521 -1.0232434513818525
leaf_weight=1656 758 116 253 86 1218 1452 508 1317 1128 40 346 516 451 1156 520 745 358 1165 22 123 182 1902 1436 559 267 1077 340 122 40 1105
leaf_count=1656 758 116 253 86 1218 1452 508 1317 1128 40 346 516 451 1156 520 745 358 1165 22 123 182 1902 1436 559 267 1077 340 122 40 1105
internal_value=-1.47241e-09 1.0766 -1.31402 2.02004 0.686313 -0.716799 0.404059 -1.72007 1.00008 1.63831 2.67972 0.115427 -0.457681 0.860413 -0.984886 -1.49112 1.22321 0.565797 1.53067 2.50387 1.9398 -1.85276 1.56904 2.41961 0.300169 0.47725 1.78445 2.96829 -0.191034 -1.0713
internal_weight=20964 11523 9441 3372 8151 3821 4291 5620 3860 2136 1236 1541 1943 2374 1878 2062 1486 2750 1574 768 562 3558 1458 645 783 1585 380 468 491 1358
internal_count=20964 11523 9441 3372 8151 3821 4291 5620 3860 2136 1236 1541 1943 2374 1878 2062 1486 2750 1574 768 562 3558 1458 645 783 1585 380 468 491 1358
is_linear=0
shrinkage=0.05


Tree=21
num_leaves=31
num_cat=0
split_feature=0 2 2 2 1 2 2 2 1 1 2 2 2 0 1 1 2 1 2 2 1 0 0 2 0 0 0 1 0 1
split_gain=1.07088e+07 1.53676e+06 826173 368628 217112 106994 56399.9 54701.4 53410.2 34087.9 26824.8 22609.9 13463.4 13398.9 12296 11421.6 10998.2 10291.7 9723.9 8800.51 8155.89 7606.5 6383.58 6376.69 5959.83 5862.67 5304.6 5202.51 5055.3 4906.16
threshold=111.50000000000001 192.50000000000003 49.500000000000007 240.50000000000003 150.50000000000003 73.500000000000014 170.50000000000003 135.50000000000003 27.500000000000004 270.50000000000006 94.500000000000014 213.50000000000003 257.50000000000006 160.50000000000003 200.50000000000003 119.50000000000001 295.50000000000006 205.50000000000003 35.500000000000007 16.500000000000004 246.50000000000003 69.500000000000014 158.50000000000003 117.50000000000001 178.50000000000003 197.50000000000003 179.50000000000003 177.50000000000003 149.50000000000003 72.500000000000014
decision_type=2 2 2 2 2 2 2 2 2 2 2 2 2 2 2 2 2 2 2 2 2 2 2 2 2 2 2 2 2 2
left_child=2 4 8 11 7 21 13 15 19 12 29 17 -5 -6 24 -2 -11 22 -10 -1 26 -4 27 -12 -8 -24 -13 -3 -17 -7
right_child=1 3 5 9 6 10 14 -9 18 16 23 20 -14 -15 -16 28 -18 -19 -20 -21 -22 -23 25 -25 -26 -27 -28 -29 -30 -31
leaf_value=-1.8534320256125991 -0.15076793726576146 1.388800385594368 -1.0869284595936979 2.0192012629287688 0.56807594119828753 -0.83411762061878114 0.87658722012982437 0.46471723762893175 -1.5414464176647247 2.6259287083883129 -0.36266589627026563 2.0634178066657762 2.4484955237166166 0.78759721387135251 1.3162260022256282 0.098165184383591023 3.0890908437456406 1.5090579456070268 -1.3166981935565818 -1.6939917469139616 2.0809197704195976 -0.8430417091414466 1.0889011333564591 -0.060496917798776521 1.0660758619092245 1.360171179460135 1.5730454383759083 2.3167486144148786 0.45960668413001199 -0.59027116045775851
leaf_weight=1492 526 44 1129 334 1410 256 822 1632 1008 479 846 59 403 1371 308 639 175 577 921 2061 100 446 487 220 838 337 845 23 114 1062
leaf_count=1492 526 44 1129 334 1410 256 822 1632 1008 479 846 59 403 1371 308 639 175 577 921 2061 100 446 487 220 838 337 845 23 114 1062
internal_value=-1.93621e-09 1.02289 -1.24847 1.83599 0.612839 -0.698072 0.821248 0.27284 -1.64595 2.48711 -0.486798 1.4696 2.25394 0.676297 1.02608 0.0280053 2.74986 1.34454 -1.43414 -1.76094 1.65245 -1.01787 1.23801 -0.300305 0.972245 1.19985 1.60505 1.70735 0.152885 -0.637634
internal_weight=20964 11523 9441 3863 7660 3959 4749 2911 5482 1391 2384 2472 737 2781 1968 1279 654 1468 1929 3553 1004 1575 891 1066 1660 824 904 67 753 1318
internal_count=20964 11523 9441 3863 7660 3959 4749 2911 5482 1391 2384 2472 737 2781 1968 1279 654 1468 1929 3553 1004 1575 891 1066 1660 824 904 67 753 1318
is_linear=0
shrinkage=0.05


Tree=22
num_leaves=31
num_cat=0
split_feature=2 2 1 2 2 1 0 1 0 1 2 2 1 2 1 0 2 2 0 1 1 1 1 2 1 1 0 0 0 1
split_gain=9.66659e+06 1.40346e+06 724957 332340 202521 77501.8 60278.1 52159.2 41648.2 31514.6 20483 15949.6 14334.6 14312.8 12342.2 11380.5 10404.2 9866.51 9436.77 9081.94 8943.21 8856.72 8252 7703.28 5805.02 5364.37 4888.22 4850.88 6453.13 4933.52
threshold=110.50000000000001 192.50000000000003 52.500000000000007 240.50000000000003 154.50000000000003 81.500000000000014 29.500000000000004 129.50000000000003 178.50000000000003 257.50000000000006 212.50000000000003 66.500000000000014 135.50000000000003 295.50000000000006 163.50000000000003 144.50000000000003 39.500000000000007 16.500000000000004 96.500000000000014 209.50000000000003 200.50000000000003 253.50000000000003 218.50000000000003 122.50000000000001 111.50000000000001 300.50000000000006 125.50000000000001 202.50000000000003 158.50000000000003 179.50000000000003
decision_type=2 2 2 2 2 2 2 2 2 2 2 2 2 2 2 2 2 2 2 2 2 2 2 2 2 2 2 2 2 2
left_child=2 4 6 10 7 11 17 24 14 22 19 -4 18 25 26 23 -8 -1 -7 27 -10 -12 -5 -9 -2 -11 -6 28 -3 -30
right_child=1 3 5 9 8 12 16 15 20 13 21 -13 -14 -15 -16 -17 -18 -19 -20 -21 -22 -23 -24 -25 -26 -27 -28 -29 29 -31
leaf_value=-1.7620302773095711 -0.17468388025560333 1.5841287180781365 -1.0225933634955233 1.5538942929212149 1.2484843711767879 -0.53655201036327838 -1.4219187453831212 -0.087635355415053615 0.96256764066736022 2.383659870518235 1.524202943741823 -0.73054644845138028 0.91645643159747125 2.9125660540824083 0.80843691035876553 0.50500178354296354 -1.185891772593014 -1.5971383274480733 -0.30685395146080313 1.4544169940590079 1.2670677760745042 2.1101266130157139 2.1203037339391617 0.33963344737645218 0.080070570604928004 2.8300404612223309 0.58128211476401304 1.3492621694092115 0.81224817392210691 1.1414565789453481
leaf_weight=1496 326 64 914 77 28 960 1045 121 1181 656 988 957 20 194 1271 1553 844 2305 837 459 303 69 390 823 712 75 1403 303 154 436
leaf_count=1496 326 64 914 77 28 960 1045 121 1181 656 988 957 20 194 1271 1553 844 2305 837 459 303 69 390 823 712 75 1403 303 154 436
internal_value=2.0174e-09 0.965957 -1.19339 1.74375 0.576607 -0.647338 -1.54731 0.297948 0.811929 2.36174 1.3959 -0.873214 -0.414748 2.53078 0.695048 0.421779 -1.31646 -1.66204 -0.429564 1.27157 1.02474 1.56245 2.02691 0.284867 6.09839e-05 2.42946 0.594337 1.18388 1.10726 1.05553
internal_weight=20964 11586 9378 3865 7721 3688 5690 3535 4186 1392 2473 1871 1817 925 2702 2497 1889 3801 1797 1416 1484 1057 467 944 1038 731 1431 957 654 590
internal_count=20964 11586 9378 3865 7721 3688 5690 3535 4186 1392 2473 1871 1817 925 2702 2497 1889 3801 1797 1416 1484 1057 467 944 1038 731 1431 957 654 590
is_linear=0
shrinkage=0.05


Tree=23
num_leaves=31
num_cat=0
split_feature=0 2 2 2 2 1 1 2 1 2 2 1 1 0 1 1 1 1 2 0 2 2 2 2 0 0 0 0 1 2
split_gain=8.72836e+06 1.25208e+06 673353 258671 211014 79103.2 57527.2 51535.1 39289.3 34428 19328.4 14385.1 13424.6 11707.6 11116.3 10260.2 9776.73 9489.49 7998.1 7477.33 7130.34 7056.94 5742.23 5254.08 5742.34 5140.75 5045.73 4958.8 4933.65 4921.73
threshold=111.50000000000001 197.50000000000003 51.500000000000007 253.50000000000003 158.50000000000003 76.500000000000014 127.50000000000001 27.500000000000004 175.50000000000003 230.50000000000003 93.500000000000014 300.50000000000006 144.50000000000003 211.50000000000003 236.50000000000003 44.500000000000007 153.50000000000003 192.50000000000003 72.500000000000014 17.500000000000004 279.50000000000006 121.50000000000001 136.50000000000003 181.50000000000003 155.50000000000003 285.50000000000006 240.50000000000003 187.50000000000003 160.50000000000003 140.50000000000003
decision_type=2 2 2 2 2 2 2 2 2 2 2 2 2 2 2 2 2 2 2 2 2 2 2 2 2 2 2 2 2 2
left_child=2 4 7 9 6 18 21 19 16 17 -7 20 22 23 26 -9 -6 -3 -4 -1 25 -2 -8 -10 -25 -5 27 -11 -14 -12
right_child=1 3 5 11 8 10 12 15 13 14 29 -13 28 -15 -16 -17 -18 -19 -20 -21 -22 -23 -24 24 -26 -27 -28 -29 -30 -31
leaf_value=-1.6682518144232639 -0.14703532926244464 1.1224848356141788 -0.94876175841134447 2.1189445660017028 0.52218157908745744 -0.56571377690192115 0.14386646092130706 -1.343851695865985 0.85919674709161953 2.0203038111329081 -0.28542811552559044 2.8421177539272584 0.43966350723080555 1.3022972894103633 1.9779032332343005 -1.0919479606646127 0.75788517661347643 1.3882836077110108 -0.69809352942580072 -1.5229367312353368 2.4687764719869554 0.1345352346570475 0.38044671057790519 1.8001383312046528 1.0154523798815149 2.5252435494494696 2.0109300788412705 1.3497047093870054 0.59820083786113709 0.45388147312661875
leaf_weight=1656 513 446 1178 478 621 1124 435 1510 806 32 1060 138 1238 276 299 552 1509 1359 436 1902 362 393 625 24 817 93 47 199 813 23
leaf_count=1656 513 446 1178 478 621 1124 435 1510 806 32 1060 138 1238 276 299 552 1509 1359 436 1902 362 393 625 24 817 93 47 199 813 23
internal_value=2.67617e-10 0.923476 -1.12713 1.72026 0.582546 -0.615019 0.325727 -1.47531 0.837083 1.43008 -0.42047 2.36565 0.427837 1.00092 1.76629 -1.27642 0.689166 1.32261 -0.881047 -1.59057 2.29518 -0.0248971 0.28336 0.950419 1.03785 2.18512 1.53869 1.4426 0.502506 -0.269727
internal_weight=20964 11523 9441 3453 8070 3821 4017 5620 4053 2382 2207 1071 3111 1923 577 2062 2130 1805 1614 3558 933 906 1060 1647 841 571 278 231 2051 1083
internal_count=20964 11523 9441 3453 8070 3821 4017 5620 4053 2382 2207 1071 3111 1923 577 2062 2130 1805 1614 3558 933 906 1060 1647 841 571 278 231 2051 1083
is_linear=0
shrinkage=0.05


Tree=24
num_leaves=31
num_cat=0
split_feature=1 2 2 2 2 2 1 1 0 2 2 2 1 2 0 0 1 2 1 0 1 2 0 1 1 0 0 2 1 1
split_gain=7.87836e+06 1.1266e+06 607852 227028 194231 78489 52593.3 41005.6 33674.8 29753 14523.7 13991.4 12982.5 10916.2 10511 10269.9 10157 9865.27 8818.36 8198.22 6567.86 6426.53 6081.88 5543.82 5503.92 6205.86 5400.4 4825.14 4818.91 4782.16
threshold=111.50000000000001 198.50000000000003 49.500000000000007 253.50000000000003 160.50000000000003 79.500000000000014 138.50000000000003 24.500000000000004 178.50000000000003 230.50000000000003 135.50000000000003 103.50000000000001 300.50000000000006 34.500000000000007 205.50000000000003 69.500000000000014 236.50000000000003 183.50000000000003 176.50000000000003 154.50000000000003 220.50000000000003 283.50000000000006 156.50000000000003 163.50000000000003 215.50000000000003 183.50000000000003 263.50000000000006 108.50000000000001 89.500000000000014 191.50000000000003
decision_type=2 2 2 2 2 2 2 2 2 2 2 2 2 2 2 2 2 2 2 2 2 2 2 2 2 2 2 2 2 2
left_child=2 4 7 9 6 15 10 -1 17 18 27 28 20 -9 -10 -4 -11 23 -3 -8 -5 -22 -20 -6 -24 -26 -27 -2 -7 -21
right_child=1 3 5 12 8 11 19 13 14 16 -12 -13 -14 -15 -16 -17 -18 -19 22 29 21 -23 24 -25 25 26 -28 -29 -30 -31
leaf_value=-1.5321449761021753 -0.22399426566610156 0.84480661923476197 -0.91289175596095695 1.3968838676810265 0.54340175331715179 -0.55514130946922247 0.37524306969132604 -1.3487768124280139 0.90569954071080194 1.4595602398224203 0.31389464900321745 -0.17263969092200632 2.7000118373096855 -1.1329396834466026 1.18464774200877 -0.67245941366031348 1.8790080580698409 0.90873891137943597 2.1182727304371922 0.53131853812230012 2.1173703511347095 2.4100357588057251 1.2087290762813259 0.72380875281581125 2.267008784413338 1.3420543771541993 2.1783155929297209 0.042086942083952125 -0.37296532456177484 1.0864204566180706
leaf_weight=3089 215 118 1240 26 893 726 1418 1369 1310 279 505 575 138 1024 455 692 299 388 22 1292 642 265 987 814 20 556 20 821 726 40
leaf_count=3089 215 118 1240 26 893 726 1418 1369 1310 279 505 575 138 1024 455 692 299 388 22 1292 642 265 987 814 20 556 20 821 726 40
internal_value=-9.2643e-10 0.877359 -1.07084 1.64602 0.559371 -0.598737 0.327878 -1.41178 0.816712 1.36612 0.0940373 -0.381388 2.24737 -1.25642 0.97761 -0.826774 1.67654 0.681159 1.26198 0.458915 2.18042 2.20288 1.29265 0.629431 1.28118 1.40116 1.37109 -0.0131326 -0.464053 0.547988
internal_weight=20964 11523 9441 3372 8151 3959 4291 5482 3860 2301 1541 2027 1071 2393 1765 1932 578 2095 1723 2750 933 907 1605 1707 1583 596 576 1036 1452 1332
internal_count=20964 11523 9441 3372 8151 3959 4291 5482 3860 2301 1541 2027 1071 2393 1765 1932 578 2095 1723 2750 933 907 1605 1707 1583 596 576 1036 1452 1332
is_linear=0
shrinkage=0.05


Tree=25
num_leaves=31
num_cat=0
split_feature=0 2 1 2 1 2 0 2 2 1 2 2 2 0 1 1 1 1 2 2 1 1 0 0 0 1 1 0 0 2
split_gain=7.115e+06 1.0207e+06 550540 243840 146750 60965.2 45275.9 38514.2 36224.6 24075 15763.2 14159.3 10486.6 9572.7 8854.94 8105.41 7590.5 7309.69 7268.33 6683.36 6638.02 6524.56 5495.07 4943.2 4766.73 4172.92 4125.6 3957.52 3851.36 3772.23
threshold=111.50000000000001 192.50000000000003 52.500000000000007 240.50000000000003 150.50000000000003 77.500000000000014 29.500000000000004 170.50000000000003 135.50000000000003 259.50000000000006 213.50000000000003 99.500000000000014 293.50000000000006 160.50000000000003 200.50000000000003 18.500000000000004 119.50000000000001 203.50000000000003 40.500000000000007 63.500000000000007 268.50000000000006 218.50000000000003 158.50000000000003 179.50000000000003 194.50000000000003 281.50000000000006 177.50000000000003 171.50000000000003 149.50000000000003 259.50000000000006
decision_type=2 2 2 2 2 2 2 2 2 2 2 2 2 2 2 2 2 2 2 2 2 2 2 2 2 2 2 2 2 2
left_child=2 4 6 10 8 19 15 13 16 21 17 -7 25 -6 27 -1 -2 22 -8 -4 23 -5 26 -12 -24 -11 -3 -9 -18 -23
right_child=1 3 5 9 7 11 18 14 -10 12 20 -13 -14 -15 -16 -17 28 -19 -20 -21 -22 29 24 -25 -26 -27 -28 -29 -30 -31
leaf_value=-1.5001107556945401 -0.12491807211482607 1.148727681284601 -0.88660681498361049 1.3245313620096759 0.45967476722905715 -0.47060583870243899 -1.2110046696271342 0.69108849573595865 0.37620414083825848 1.9856788682753657 1.7707154413809381 -0.20399102979513095 2.4893704719386753 0.6452241590777773 1.0864184956368688 -1.3540819326562143 0.074862765013757687 1.2235981660485269 -1.0122755527139311 -0.68223000059423322 2.1726539313793185 1.6858466073590439 0.84575742908596663 1.3023146017422171 1.0943462657513274 2.2408767307029582 1.975071818413942 0.85213970400560746 0.3903428341997297 1.9816634636480832
leaf_weight=1900 526 44 773 76 1410 1365 1096 594 1632 405 60 784 213 1371 308 1901 639 625 793 829 24 226 418 920 358 265 23 1066 114 206
leaf_count=1900 526 44 773 76 1410 1365 1096 594 1632 405 60 784 213 1371 308 1901 639 625 793 829 24 226 418 920 358 265 23 1066 114 206
internal_value=-3.44129e-11 0.833771 -1.01764 1.49643 0.499588 -0.54738 -1.32765 0.67093 0.22006 2.02599 1.19844 -0.373339 2.18377 0.551148 0.840195 -1.42708 0.0208206 1.09402 -1.12758 -0.780846 1.35111 1.75175 0.997952 1.33099 0.960441 2.08662 1.4324 0.794511 0.122625 1.82691
internal_weight=20964 11523 9441 3863 7660 3751 5690 4749 2911 1391 2472 2149 883 2781 1968 3801 1279 1468 1889 1602 1004 508 843 980 776 670 67 1660 753 432
internal_count=20964 11523 9441 3863 7660 3751 5690 4749 2911 1391 2472 2149 883 2781 1968 3801 1279 1468 1889 1602 1004 508 843 980 776 670 67 1660 753 432
is_linear=0
shrinkage=0.05


Tree=26
num_leaves=31
num_cat=0
split_feature=2 2 1 2 2 1 1 1 0 0 2 0 2 1 1 1 1 0 0 2 0 1 1 2 1 0 2 2 0 2
split_gain=6.42319e+06 844730 604227 158702 148885 73753.5 46614.8 29479.5 26191.7 22556.9 14764.7 12591.5 11316.9 11036.2 9434.59 8730.22 7460.11 6861.37 6590.01 6103.2 6249.29 6047.45 5623.73 5403 5390.4 4946.7 4918.75 4758.27 5082.17 4707.45
threshold=119.50000000000001 203.50000000000003 54.500000000000007 253.50000000000003 165.50000000000003 88.500000000000014 32.500000000000007 147.50000000000003 185.50000000000003 253.50000000000003 72.500000000000014 129.50000000000003 135.50000000000003 300.50000000000006 18.500000000000004 165.50000000000003 188.50000000000003 166.50000000000003 160.50000000000003 230.50000000000003 187.50000000000003 234.50000000000003 197.50000000000003 95.500000000000014 230.50000000000003 151.50000000000003 38.500000000000007 283.50000000000006 234.50000000000003 190.50000000000003
decision_type=2 2 2 2 2 2 2 2 2 2 2 2 2 2 2 2 2 2 2 2 2 2 2 2 2 2 2 2 2 2
left_child=2 4 6 9 7 10 14 12 15 16 -4 23 -2 24 -1 -6 -3 -18 -9 -19 -21 -22 -10 -7 -5 -13 -8 28 -26 -17
right_child=1 3 5 13 8 11 26 18 22 -11 -12 25 -14 -15 -16 29 17 19 -20 20 21 -23 -24 -25 27 -27 -28 -29 -30 -31
leaf_value=-1.4223165197554417 0.069611874506728427 0.94137149618618432 -0.77850191926432188 1.482717363757116 0.55234515839882625 -0.38575172888161907 -1.1357101870886686 0.40942375200079656 0.87644012797484661 1.744916831698653 -0.5193650563679838 0.064953930413021763 0.3178258513344156 2.4466650458349699 -1.2717493831586999 0.71238560084249203 2.0558759909409745 1.1767435882179409 0.57104756855293104 2.2082618153613547 1.1860464274634919 1.6050282002158771 1.0710053780521507 -0.20137940147263725 2.4324806806776262 0.82356982880830776 -0.95742726249415433 2.1744653856079537 1.8805093010118221 0.94186927557401234
leaf_weight=1939 753 224 1156 54 777 636 631 1452 883 223 1048 153 1177 138 2245 963 26 1097 1115 23 210 146 641 1059 45 25 1000 265 569 291
leaf_count=1939 753 224 1156 54 777 636 631 1452 883 223 1048 153 1177 138 2245 963 26 1097 1115 23 210 146 641 1059 45 25 1000 265 569 291
internal_value=-1.85902e-10 0.827251 -0.925932 1.54037 0.559786 -0.459238 -1.25314 0.368624 0.801602 1.27169 -0.655283 -0.228549 0.220984 2.02933 -1.34153 0.684039 1.21055 1.25069 0.479627 1.23651 1.40948 1.35788 0.958275 -0.27056 1.9676 0.171501 -1.0264 1.99739 1.92096 0.765639
internal_weight=20964 11072 9892 3020 8052 4077 5815 4497 3555 1949 2204 1873 1930 1071 4184 2031 1726 1502 2567 1476 379 356 1524 1695 933 178 1631 879 614 1254
internal_count=20964 11072 9892 3020 8052 4077 5815 4497 3555 1949 2204 1873 1930 1071 4184 2031 1726 1502 2567 1476 379 356 1524 1695 933 178 1631 879 614 1254
is_linear=0
shrinkage=0.05


Tree=27
num_leaves=31
num_cat=0
split_feature=0 2 1 2 2 1 1 1 1 1 2 1 2 2 1 2 0 0 2 2 0 0 0 1 1 2 2 2 1 1
split_gain=5.80007e+06 831785 447978 198457 119550 56069.5 32920.5 32266.6 28082.6 25724.4 13808.1 10522.3 9221.32 8715.76 8521.6 8176.34 7028.02 6175.09 5866.49 5762.7 5474.23 8426.27 5063.9 4709.01 4044.26 3716.26 3710.2 3567.79 3250.07 3098.58
threshold=111.50000000000001 192.50000000000003 50.500000000000007 236.50000000000003 150.50000000000003 74.500000000000014 176.50000000000003 24.500000000000004 127.50000000000001 259.50000000000006 93.500000000000014 192.50000000000003 168.50000000000003 295.50000000000006 220.50000000000003 35.500000000000007 219.50000000000003 144.50000000000003 58.500000000000007 218.50000000000003 215.50000000000003 238.50000000000003 156.50000000000003 162.50000000000003 15.500000000000002 116.50000000000001 126.50000000000001 140.50000000000003 153.50000000000003 200.50000000000003
decision_type=2 2 2 2 2 2 2 2 2 2 2 2 2 2 2 2 2 2 2 2 2 2 2 2 2 2 2 2 2 2
left_child=2 4 7 11 8 18 12 24 25 14 -7 22 -6 -11 -5 -9 29 26 -4 -13 -21 -22 23 -3 -1 -2 -10 -12 -14 -8
right_child=1 3 5 9 6 10 16 15 17 13 27 19 28 -15 -16 -17 -18 -19 -20 20 21 -23 -24 -25 -26 -27 -28 -29 -30 -31
leaf_value=-1.3826238999143243 -0.1445092179308953 0.80407649731636044 -0.8648829265232223 1.1663983907200333 0.44902380745962073 -0.46643635594376892 0.72615993971977844 -1.1495982345145979 0.023966215743063804 1.8917822363649557 -0.23545108773301693 1.0679430411782673 0.46009863454613598 2.271231434691138 1.6428758040494935 -0.96476706485538988 1.1772927776320812 0.37624803959433128 -0.66448428178106278 1.4281689643243651 0.89327066049484893 1.4210996535070466 0.85290225644822881 1.6973374770747292 -1.2665654902188903 0.061782181713754547 0.26057120031871328 0.39394466227487379 0.67502366559714122 0.90633544933540056
leaf_weight=1280 418 25 579 117 2035 1230 1214 1422 221 701 1070 1147 222 193 474 1033 109 1178 989 266 177 132 595 36 1815 457 662 23 847 297
leaf_count=1280 418 25 579 117 2035 1230 1214 1422 221 701 1070 1147 222 193 474 1033 109 1178 989 266 177 132 595 36 1815 457 662 23 847 297
internal_value=2.31579e-09 0.752793 -0.918805 1.35099 0.451117 -0.507461 0.606841 -1.20719 0.20056 1.8045 -0.351523 1.06779 0.511485 1.9737 1.54855 -1.07183 0.789546 0.301317 -0.738484 1.1327 1.26189 1.11875 0.897382 1.33125 -1.31456 -0.0367662 0.201353 -0.222207 0.63039 0.761575
internal_weight=20964 11523 9441 3863 7660 3891 4724 5550 2936 1485 2323 2378 3104 894 591 2455 1620 2061 1568 1722 575 309 656 61 3095 875 883 1093 1069 1511
internal_count=20964 11523 9441 3863 7660 3891 4724 5550 2936 1485 2323 2378 3104 894 591 2455 1620 2061 1568 1722 575 309 656 61 3095 875 883 1093 1069 1511
is_linear=0
shrinkage=0.05


Tree=28
num_leaves=31
num_cat=0
split_feature=1 2 2 2 1 1 2 2 2 0 2 1 1 0 2 0 1 0 2 0 0 2 1 0 1 2 2 2 0 0
split_gain=5.23475e+06 748310 404392 152037 131315 52303.8 35661.9 28097.3 27702.8 20224.9 11881 10671.4 9480.18 8722.1 6785.76 6490.43 6447.38 5522.59 5465.28 5144.31 4852.81 4840.8 4737.46 4605.15 4504.1 4531.82 4288.46 4256.65 3995.43 5013.79
threshold=111.50000000000001 198.50000000000003 49.500000000000007 253.50000000000003 157.50000000000003 74.500000000000014 136.50000000000003 27.500000000000004 174.50000000000003 253.50000000000003 91.500000000000014 176.50000000000003 300.50000000000006 205.50000000000003 230.50000000000003 142.50000000000003 183.50000000000003 44.500000000000007 16.500000000000004 187.50000000000003 156.50000000000003 184.50000000000003 234.50000000000003 285.50000000000006 220.50000000000003 279.50000000000006 64.500000000000014 132.50000000000003 285.50000000000006 234.50000000000003
decision_type=2 2 2 2 2 2 2 2 2 2 2 2 2 2 2 2 2 2 2 2 2 2 2 2 2 2 2 2 2 2
left_child=2 4 7 9 6 26 15 18 16 11 -7 -3 24 -10 20 -2 -6 -9 -1 -16 -13 -8 -21 -11 -5 28 -4 -12 29 -26
right_child=1 3 5 12 8 10 21 17 13 23 27 14 -14 -15 19 -17 -18 -19 -20 22 -22 -23 -24 -25 25 -27 -28 -29 -30 -31
leaf_value=-1.3057597508977672 -0.012298021219146747 0.61568176474571235 -0.77457234203817471 1.1276624830869528 0.48974084434889414 -0.45197061938887018 0.34915921518792087 -1.0447920649049625 0.7288876640372588 1.4796408039123858 -0.24245140815326335 1.7826941555196587 2.220531420863193 0.98728295586518322 1.8854862838052213 0.25088341565119093 0.71306696900173749 -0.84677228506911428 -1.1805391637433413 1.0747690136938595 1.0347871386318566 0.84624376952648162 1.4438320996622518 2.1868048972808398 2.0916282425956294 1.9335253708199833 -0.61157361378303676 0.29533692598342898 2.0035496068177046 1.5825527683836398
leaf_weight=1525 1109 125 928 26 1910 1119 2395 1460 1590 201 1160 22 138 411 32 297 389 464 2033 215 1534 50 146 26 55 358 714 38 93 401
leaf_count=1525 1109 125 928 26 1910 1119 2395 1460 1590 201 1160 22 138 411 32 297 389 464 2033 215 1534 50 146 26 55 358 714 38 93 401
internal_value=1.31148e-09 0.715166 -0.87288 1.34162 0.456007 -0.487811 0.243942 -1.15097 0.645929 1.11257 -0.334819 1.06353 1.83373 0.781961 1.09225 0.0432958 0.527529 -0.997037 -1.23421 1.27789 1.04536 0.359325 1.22403 1.56064 1.77652 1.79512 -0.703695 -0.225393 1.70487 1.64395
internal_weight=20964 11523 9441 3372 8151 3959 3851 5482 4300 2301 2317 2074 1071 2001 1949 1406 2299 1924 3558 393 1556 2445 361 227 933 907 1642 1198 549 456
internal_count=20964 11523 9441 3372 8151 3959 3851 5482 4300 2301 2317 2074 1071 2001 1949 1406 2299 1924 3558 393 1556 2445 361 227 933 907 1642 1198 549 456
is_linear=0
shrinkage=0.05


Tree=29
num_leaves=31
num_cat=0
split_feature=0 2 1 2 1 2 0 2 2 2 1 2 0 0 0 2 2 2 1 0 1 1 0 0 0 1 0 0 0 2
split_gain=4.72879e+06 677841 364777 161794 98705.9 45601.4 27167 25918.9 23666.9 16363 11600.8 11242.3 11178.3 6926.82 11087.1 6778.42 5885.98 5714.81 5620.69 7401.92 4756.32 4285.06 4282.29 4203.56 3938.46 3918.37 3673.65 3416.7 3376.27 3115.79
threshold=111.50000000000001 192.50000000000003 50.500000000000007 246.50000000000003 150.50000000000003 73.500000000000014 29.500000000000004 162.50000000000003 125.50000000000001 220.50000000000003 259.50000000000006 94.500000000000014 178.50000000000003 240.50000000000003 215.50000000000003 295.50000000000006 16.500000000000004 146.50000000000003 177.50000000000003 155.50000000000003 220.50000000000003 212.50000000000003 225.50000000000003 180.50000000000003 70.500000000000014 35.500000000000007 212.50000000000003 213.50000000000003 281.50000000000006 58.500000000000007
decision_type=2 2 2 2 2 2 2 2 2 2 2 2 2 2 2 2 2 2 2 2 2 2 2 2 2 2 2 2 2 2
left_child=2 4 6 9 8 24 16 -6 -2 18 20 -7 -9 14 23 -12 -1 -10 -3 -20 -5 -21 -14 -11 29 -8 -25 -22 -29 -4
right_child=1 3 5 10 7 11 25 12 17 13 15 -13 22 -15 -16 -17 -18 -19 19 21 27 -23 -24 26 -26 -27 -28 28 -30 -31
leaf_value=-1.2421528078814879 -0.046840083300207502 0.67531164582767245 -0.80731631209425658 0.96983034964217707 0.4088802956565788 -0.41990041057950117 -1.0090356089578751 0.55078032549445821 0.18332260617244533 1.7789899343574369 1.7187368450540863 -0.20129625683503602 0.73111601797419645 1.4211674666591825 0.83645626308434484 2.0560118726498104 -1.1147837399613409 0.34925639496676758 1.8573346398093484 0.87302773498415487 2.0195930011570455 1.0460013907480366 1.1503855049435516 1.1508050850273051 -0.54181530476401907 -0.8587389841049039 1.6694662399016895 1.4182529641007136 1.9328651509558161 -0.63885913667373662
leaf_weight=1496 834 217 546 43 1965 1312 793 1462 1011 37 653 1066 1258 223 245 193 2304 1066 22 1019 32 552 64 274 415 957 39 278 36 552
leaf_count=1496 834 217 546 43 1965 1312 793 1462 1011 37 653 1066 1258 223 245 193 2304 1066 22 1019 32 552 64 274 415 957 39 278 36 552
internal_value=1.717e-10 0.679727 -0.829625 1.21974 0.407394 -0.45844 -1.08986 0.547917 0.178146 0.997913 1.69177 -0.321905 0.646052 1.1835 1.09443 1.79568 -1.16493 0.268487 0.91404 0.94656 1.46578 0.933805 0.751413 1.27501 -0.673033 -0.926845 1.21543 1.52741 1.47725 -0.722627
internal_weight=20964 11523 9441 3863 7660 3891 5550 4749 2911 2628 1235 2378 2784 818 595 846 3800 2077 1810 1593 389 1571 1322 350 1513 1750 313 346 314 1098
internal_count=20964 11523 9441 3863 7660 3891 5550 4749 2911 2628 1235 2378 2784 818 595 846 3800 2077 1810 1593 389 1571 1322 350 1513 1750 313 346 314 1098
is_linear=0
shrinkage=0.05


Tree=30
num_leaves=31
num_cat=0
split_feature=2 2 1 2 2 1 1 0 1 0 1 0 2 0 1 2 1 2 0 1 2 0 2 0 0 1 1 1 0 2
split_gain=4.26932e+06 631696 304470 169195 83283.2 36263.3 24636.3 19457.2 19430 18664.4 11565.8 9532.43 7175.76 7053.2 6615.41 6596.45 6543.08 6032.93 5955.23 5115 4256.1 4255.22 4161.98 3625.42 3653.47 3263.97 2754.79 2748.89 2876.66 2677.76
threshold=108.50000000000001 187.50000000000003 50.500000000000007 236.50000000000003 148.50000000000003 74.500000000000014 24.500000000000004 171.50000000000003 259.50000000000006 144.50000000000003 212.50000000000003 140.50000000000003 212.50000000000003 95.500000000000014 220.50000000000003 293.50000000000006 127.50000000000001 35.500000000000007 176.50000000000003 192.50000000000003 174.50000000000003 253.50000000000003 58.500000000000007 143.50000000000003 211.50000000000003 15.500000000000002 174.50000000000003 153.50000000000003 125.50000000000001 122.50000000000001
decision_type=2 2 2 2 2 2 2 2 2 2 2 2 2 2 2 2 2 2 2 2 2 2 2 2 2 2 2 2 2 2
left_child=2 4 6 10 9 22 25 20 14 16 12 13 23 -7 -5 -10 -2 -8 -12 -9 27 -20 -4 -3 26 -1 -25 28 -6 -18
right_child=1 3 5 8 7 11 17 19 15 -11 18 -13 -14 -15 -16 -17 29 -19 21 -21 -22 -23 -24 24 -26 -27 -28 -29 -30 -31
leaf_value=-1.1903284936118872 -0.047928716523781958 1.3992568189447576 -0.74090006503538719 0.9901667779721951 0.74039722635195815 -0.40312436055564566 -0.98388695945090887 0.57286150551643078 1.6185074446835008 0.30737502613563072 1.7487593755126001 0.76790179461240771 0.99083624710947016 -0.21816431075008264 1.408554561568212 1.9373163199708074 -0.044483039705874097 -0.82512002350881497 0.97691087134609944 0.77692758262042461 0.55638585431364984 1.367279465967103 -0.57207497468559532 0.56482174084750847 0.92050953391840251 -1.086065561802591 0.75414589800659693 0.42715348750523507 0.30246463807326507 0.18709436215702061
leaf_weight=1280 944 22 579 118 39 1282 1422 1270 681 1059 28 20 452 862 474 213 153 1033 857 405 410 76 988 244 263 1815 904 1419 974 678
leaf_count=1280 944 22 579 118 39 1282 1422 1270 681 1059 28 20 452 862 474 213 153 1033 857 405 410 76 988 244 263 1815 904 1419 974 678
internal_value=2.02383e-09 0.635964 -0.800556 1.1149 0.353724 -0.451272 -1.03536 0.48703 1.54734 0.141252 0.889104 -0.318625 0.817135 -0.328761 1.32516 1.69447 0.0421405 -0.917082 1.03027 0.622203 0.407363 1.00871 -0.634455 0.762346 0.752416 -1.12919 0.713906 0.38224 0.319325 0.144457
internal_weight=20964 11683 9281 4332 7351 3731 5550 4517 1486 2834 2846 2164 1885 2144 592 894 1775 2455 961 1675 2842 933 1567 1433 1411 3095 1148 2432 1013 831
internal_count=20964 11683 9281 4332 7351 3731 5550 4517 1486 2834 2846 2164 1885 2144 592 894 1775 2455 961 1675 2842 933 1567 1433 1411 3095 1148 2432 1013 831
is_linear=0
shrinkage=0.05


Tree=31
num_leaves=31
num_cat=0
split_feature=0 2 2 2 2 2 1 1 0 1 1 1 2 0 1 0 0 0 2 0 0 0 0 1 0 0 1 0 2 0
split_gain=3.85408e+06 552729 297483 116066 96340 44291 25347.7 18621 17039.6 15516.9 9428.43 7806.99 7285.81 7021.52 6719.87 6017.31 5129.62 4742.58 4437.8 8806.59 4259.26 4850.47 4987.2 3938.11 3816.49 3753.02 3422.09 3693.22 4029.41 4422.56
threshold=111.50000000000001 197.50000000000003 46.500000000000007 253.50000000000003 158.50000000000003 73.500000000000014 127.50000000000001 184.50000000000003 25.500000000000004 238.50000000000003 89.500000000000014 300.50000000000006 179.50000000000003 154.50000000000003 176.50000000000003 149.50000000000003 211.50000000000003 156.50000000000003 220.50000000000003 187.50000000000003 240.50000000000003 215.50000000000003 212.50000000000003 152.50000000000003 285.50000000000006 69.500000000000014 230.50000000000003 234.50000000000003 279.50000000000006 285.50000000000006
decision_type=2 2 2 2 2 2 2 2 2 2 2 2 2 2 2 2 2 2 2 2 2 2 2 2 2 2 2 2 2 2
left_child=2 4 8 9 6 25 -2 12 -1 14 -7 26 23 -8 -3 -9 -17 -16 -19 -20 21 22 -21 -6 -11 -4 -5 -28 29 -29
right_child=1 3 5 11 7 10 13 15 -10 24 -12 -13 -14 -15 17 16 -18 18 19 20 -22 -23 -24 -25 -26 -27 27 28 -30 -31
leaf_value=-1.0687517775791737 -0.0191424926975228 0.55920360729202523 -0.66433387645062369 1.1370998127592935 0.31550573859995573 -0.40188719257382233 0.2195696937023239 1.5727912175655367 -0.88399543267753966 1.1858560265113887 -0.20200298507648193 1.9263694345519164 0.62063471231905332 0.37266749556696899 1.5991127538681031 0.65098322321115065 0.90226897153840113 0.84922084096194139 1.6071388609576645 0.95710639253002894 1.2890457230585595 0.71314353353763915 1.6227905336767436 0.47616840079164496 1.8349667767683666 -0.49757272310628997 1.9327758170407394 1.3534798572499021 1.6520177107996645 1.7388732578443447
leaf_weight=3260 906 143 1322 54 513 1072 1855 20 2022 401 1312 138 718 1256 25 1064 251 1182 57 233 81 204 32 1487 24 453 58 390 339 92
leaf_count=3260 906 143 1322 54 513 1072 1855 20 2022 401 1312 138 718 1256 25 1064 251 1182 57 233 81 204 32 1487 24 453 58 390 339 92
internal_value=1.39642e-09 0.613648 -0.748975 1.14305 0.387129 -0.432676 0.213599 0.559118 -0.998025 0.948668 -0.291884 1.57536 0.484008 0.28138 0.889197 0.712039 0.698947 0.915211 0.905654 1.01555 0.954235 0.89641 1.03749 0.434958 1.22251 -0.621775 1.52344 1.54718 1.51994 1.42704
internal_weight=20964 11523 9441 3453 8070 4159 4017 4053 5282 2382 2384 1071 2718 3111 1957 1335 1315 1814 1789 607 550 469 265 2000 425 1775 933 879 821 482
internal_count=20964 11523 9441 3453 8070 4159 4017 4053 5282 2382 2384 1071 2718 3111 1957 1335 1315 1814 1789 607 550 469 265 2000 425 1775 933 879 821 482
is_linear=0
shrinkage=0.05


Tree=32
num_leaves=31
num_cat=0
split_feature=2 2 0 2 2 1 0 2 1 0 1 0 1 0 2 0 0 1 1 0 2 2 0 0 1 0 2 0 2 1
split_gain=3.4816e+06 514736 248401 137950 68013.8 35670.4 16164.8 16102.4 15974.8 15238.8 9687.48 8337.32 6222.54 6015.41 5919.95 5368.67 5231.44 5215.79 4215.36 3633.68 3466.54 3388.05 3249.37 3196.39 2961.97 3976.24 3265.05 4192.37 2863.68 2771.91
threshold=108.50000000000001 187.50000000000003 46.500000000000007 236.50000000000003 148.50000000000003 72.500000000000014 171.50000000000003 257.50000000000006 24.500000000000004 144.50000000000003 212.50000000000003 140.50000000000003 300.50000000000006 95.500000000000014 212.50000000000003 176.50000000000003 250.50000000000003 139.50000000000003 192.50000000000003 263.50000000000006 35.500000000000007 174.50000000000003 143.50000000000003 226.50000000000003 230.50000000000003 238.50000000000003 279.50000000000006 285.50000000000006 80.500000000000014 15.500000000000002
decision_type=2 2 2 2 2 2 2 2 2 2 2 2 2 2 2 2 2 2 2 2 2 2 2 2 2 2 2 2 2 2
left_child=2 4 8 10 9 -4 21 16 29 17 14 13 24 28 22 -12 -5 -2 -8 -17 -10 -6 -3 -24 -9 -26 27 -27 -7 -1
right_child=1 3 5 7 6 11 18 12 20 -11 15 -13 -14 -15 -16 19 -18 -19 -20 -21 -22 -23 23 -25 25 26 -28 -29 -30 -31
leaf_value=-1.0775227804730141 -0.011314130865311113 1.2900946205312556 -0.5977355366607473 1.0265629540946517 0.34496790916110565 -0.46111774196767286 0.51841236672386182 1.0550913924262637 -0.89324708654988894 0.27762720345603337 1.614135563772704 0.72040919408202175 1.8287889351643731 -0.20202988501119645 0.89465614638942403 0.89086613397820291 1.3521383843663652 0.18703583639892254 0.70366534723359875 1.3839070075597519 -0.76330691455325839 0.50034368229711934 0.65976355924330354 0.99312557852581929 1.8546029242561826 1.2729271588226161 1.5679788158871903 1.6664119157680248 -0.31327281154221098 -0.98137389810983144
leaf_weight=1279 1334 22 1716 286 2432 529 1270 42 1375 1059 28 20 136 872 452 894 217 441 405 39 819 410 1335 76 67 318 334 86 860 1811
leaf_count=1279 1334 22 1716 286 2432 529 1270 42 1375 1059 28 20 136 872 452 894 217 441 405 39 819 410 1335 76 67 318 334 86 860 1811
internal_value=-1.77036e-09 0.574305 -0.72294 1.00663 0.31953 -0.425525 0.439998 1.39711 -0.947915 0.127522 0.802752 -0.29597 1.51485 -0.304961 0.736885 0.931948 1.16702 0.0379661 0.563205 0.911476 -0.844742 0.367383 0.687121 0.677719 1.46444 1.4858 1.45231 1.35669 -0.369579 -1.02117
internal_weight=20964 11683 9281 4332 7351 3997 4517 1486 5284 2834 2846 2281 983 2261 1885 961 503 1775 1675 933 2194 2842 1433 1411 847 805 738 404 1389 3090
internal_count=20964 11683 9281 4332 7351 3997 4517 1486 5284 2834 2846 2281 983 2261 1885 961 503 1775 1675 933 2194 2842 1433 1411 847 805 738 404 1389 3090
is_linear=0
shrinkage=0.05


Tree=33
num_leaves=31
num_cat=0
split_feature=2 2 1 2 2 1 1 1 0 0 0 2 0 1 2 0 2 1 1 0 1 0 1 1 0 0 1 2 0 0
split_gain=3.14359e+06 414171 295904 81873.1 70369.5 34308.5 27126.5 19474.5 12725.8 10887.9 7107.41 7078.33 6381.97 6364.92 6010.97 4762.2 4080.67 3921.8 3764.78 4595.55 3342.28 5193.55 3419.91 3810.94 3584.44 3339.53 2793.27 2774.45 2912.17 3792.87
threshold=119.50000000000001 206.50000000000003 60.500000000000007 170.50000000000003 253.50000000000003 33.500000000000007 90.500000000000014 151.50000000000003 196.50000000000003 253.50000000000003 151.50000000000003 135.50000000000003 19.500000000000004 300.50000000000006 73.500000000000014 160.50000000000003 46.500000000000007 105.50000000000001 175.50000000000003 149.50000000000003 188.50000000000003 186.50000000000003 209.50000000000003 204.50000000000003 179.50000000000003 285.50000000000006 220.50000000000003 279.50000000000006 234.50000000000003 283.50000000000006
decision_type=2 2 2 2 2 2 2 2 2 2 2 2 2 2 2 2 2 2 2 2 2 2 2 2 2 2 2 2 2 2
left_child=2 3 5 7 9 12 14 11 18 20 17 -2 -1 26 -4 -9 -7 -8 -5 -20 -3 22 23 -22 -24 -11 -6 28 -28 -30
right_child=1 4 6 8 13 16 10 15 -10 25 -12 -13 -14 -15 -16 -17 -18 -19 19 -21 21 -23 24 -25 -26 -27 27 -29 29 -31
leaf_value=-0.99850221510292969 0.054092463855166563 0.65811492139166539 -0.52094677270023626 0.45489388478674986 0.8641636908054352 -0.75461334792668366 -0.23298794015662538 0.30292686455281376 0.74447584821921131 1.1641849483104096 0.68817916011810309 0.23469285827115594 -0.87661224380195135 1.7389568994010707 -0.34308707041416991 0.43693442174308789 -0.60893688803964319 -0.081678739198309119 1.259791946232319 0.57471910114336733 1.2067627547116118 0.85540046253774327 2.0241597198304677 0.40636744529008867 1.1109007087620824 1.7676281030361469 1.6642956894094294 1.4980822280881791 1.2100757101854804 1.5523498467370578
leaf_weight=2109 811 182 845 928 26 969 900 1316 1032 194 25 1639 2188 138 1085 1336 954 817 25 1176 58 1215 21 20 22 26 55 358 392 102
leaf_count=2109 811 182 845 928 26 969 900 1316 1032 194 25 1639 2188 138 1085 1336 954 817 25 1176 58 1215 21 20 22 26 55 358 392 102
internal_value=1.26167e-09 0.578728 -0.647764 0.400427 1.10322 -0.85788 -0.291848 0.276544 0.600381 0.90677 -0.148804 0.17491 -0.936437 1.42202 -0.420958 0.370436 -0.682343 -0.16099 0.530534 0.58898 0.859127 0.886511 1.1989 1.00153 1.55691 1.2355 1.37514 1.38979 1.31917 1.28075
internal_weight=20964 11072 9892 8263 2809 6220 3672 5102 3161 1738 1742 2450 4297 1071 1930 2652 1923 1717 2129 1201 1518 1336 121 78 43 220 933 907 549 494
internal_count=20964 11072 9892 8263 2809 6220 3672 5102 3161 1738 1742 2450 4297 1071 1930 2652 1923 1717 2129 1201 1518 1336 121 78 43 220 933 907 549 494
is_linear=0
shrinkage=0.05


Tree=34
num_leaves=31
num_cat=0
split_feature=0 1 1 2 2 1 2 2 2 2 2 2 1 1 1 1 0 1 0 2 0 0 0 1 1 0 1 0 0 1
split_gain=2.83777e+06 409389 219027 99879.3 61204.8 27156.9 20064.4 17175.6 12411.1 11241.7 6983.36 6763.7 5520.08 5276.38 4623.55 4447.61 4183.63 3858.82 3810.2 3795.41 3747.06 4724.73 3671.25 3003.4 2899.34 3137.19 2813.86 2795.72 2776.9 2605.95
threshold=111.50000000000001 192.50000000000003 50.500000000000007 236.50000000000003 160.50000000000003 84.500000000000014 125.50000000000001 23.500000000000004 268.50000000000006 182.50000000000003 199.50000000000003 66.500000000000014 250.50000000000003 144.50000000000003 37.500000000000007 193.50000000000003 144.50000000000003 303.50000000000006 166.50000000000003 95.500000000000014 255.50000000000003 187.50000000000003 298.50000000000006 157.50000000000003 153.50000000000003 128.50000000000003 131.50000000000003 199.50000000000003 152.50000000000003 257.50000000000006
decision_type=2 2 2 2 2 2 2 2 2 2 2 2 2 2 2 2 2 2 2 2 2 2 2 2 2 2 2 2 2 2
left_child=2 4 7 10 6 11 23 -1 12 24 -3 -4 20 28 -9 -12 -11 -10 -17 -7 21 -5 -14 -2 25 -6 -27 -18 -8 -20
right_child=1 3 5 8 9 19 13 14 17 16 15 -13 22 -15 -16 18 27 -19 29 -21 -22 -23 -24 -25 -26 26 -28 -29 -30 -31
leaf_value=-0.92783546858952448 -0.040040268234525098 0.64413962367288469 -0.56149282300273062 1.5855326771736147 0.8937829480284738 -0.28541439124275031 0.11553889311215854 -0.79802909284391577 1.3721191864011733 1.1005631132003588 1.420243095358213 -0.38642794257482227 1.2129290846185854 0.28951675940634575 -0.65689145577403174 1.4044869718643336 0.53462934417960539 1.7028344623672151 0.78081921906277962 -0.13455382709671221 1.2848031610250474 0.81912634290882158 1.8497959489623708 0.57984538301825528 0.43452459063750787 -0.25823587576548257 0.29760016552759921 0.71701096854411539 0.29363473283584557 1.1719822127033364
leaf_weight=2919 850 976 1058 22 21 768 902 1767 614 39 30 1153 396 2190 864 26 960 103 1318 912 76 234 24 20 1652 24 444 269 289 44
leaf_count=2919 850 976 1058 22 21 768 902 1767 614 39 30 1153 396 2190 864 26 960 103 1318 912 76 234 24 20 1652 24 444 269 289 44
internal_value=-6.53308e-10 0.52656 -0.64268 0.946229 0.314917 -0.355056 0.188351 -0.844329 1.27079 0.472744 0.747072 -0.470199 1.12888 0.243454 -0.751681 0.81792 0.590727 1.41963 0.804902 -0.203519 0.976513 0.884989 1.24932 -0.02579 0.402868 0.295923 0.269096 0.574549 0.158754 0.793456
internal_weight=20964 11523 9441 3863 7660 3891 4251 5550 1469 3409 2394 2211 752 3381 2631 1418 1268 717 1388 1680 332 256 420 870 2141 489 468 1229 1191 1362
internal_count=20964 11523 9441 3863 7660 3891 4251 5550 1469 3409 2394 2211 752 3381 2631 1418 1268 717 1388 1680 332 256 420 870 2141 489 468 1229 1191 1362
is_linear=0
shrinkage=0.05


Tree=35
num_leaves=31
num_cat=0
split_feature=1 1 2 2 1 1 2 2 1 2 2 2 2 0 0 0 1 1 0 0 0 0 2 0 2 0 1 2 0 2
split_gain=2.56259e+06 368994 197753 90067.6 53184.6 28726 16190.4 13188.8 12132.9 9492.62 7874.35 6208.07 4063.92 3982.15 3942.53 3512.62 3482.59 3359.19 4292.6 3099.72 6156.2 3461.13 2953.14 2895.86 2836.42 2819.81 2725.33 2551.8 2428.61 2383.01
threshold=111.50000000000001 192.50000000000003 46.500000000000007 240.50000000000003 156.50000000000003 74.500000000000014 140.50000000000003 182.50000000000003 24.500000000000004 268.50000000000006 218.50000000000003 88.500000000000014 122.50000000000001 274.50000000000006 160.50000000000003 179.50000000000003 303.50000000000006 208.50000000000003 158.50000000000003 240.50000000000003 215.50000000000003 212.50000000000003 173.50000000000003 146.50000000000003 132.50000000000003 184.50000000000003 54.500000000000007 34.500000000000007 223.50000000000003 10.500000000000002
decision_type=2 2 2 2 2 2 2 2 2 2 2 2 2 2 2 2 2 2 2 2 2 2 2 2 2 2 2 2 2 2
left_child=2 4 8 10 6 26 12 14 29 13 17 -7 -2 -5 -6 -12 -11 18 -3 20 21 -17 -19 -9 -13 -20 -4 -10 -25 -1
right_child=1 3 5 9 7 11 -8 23 27 16 15 24 -14 -15 -16 19 -18 22 25 -21 -22 -23 -24 28 -26 -27 -28 -29 -30 -31
leaf_value=-1.0086748476546163 -0.047176520119075194 1.1720558130647987 -0.58402669698141996 1.0187703331923277 0.29323399645815557 -0.33498286396639965 0.25607677934578726 1.1105403281748296 -0.76574041181787511 1.3035132291396103 1.4872801129113544 -0.18033427361738294 0.11279526248118379 1.3089493898408753 0.4158946632191346 0.87648956109654197 1.6176927275196153 0.31955754786729812 0.43082258079939967 1.0446627992311581 0.58668769786142871 1.4223490763794293 0.75985074601505165 0.54315111668871108 0.2577191634397758 0.63182114258094246 -0.45609306931843463 -0.65441786024922677 0.97204160146853502 -0.86293303613800565
leaf_weight=312 681 32 636 509 1083 938 2096 24 1369 614 22 1342 952 154 1658 242 103 40 230 149 219 33 795 1130 38 723 1205 825 34 2776
leaf_count=312 681 32 636 509 1083 938 2096 24 1369 614 22 1342 952 154 1658 242 103 40 230 149 219 33 795 1130 38 723 1205 825 34 2776
internal_value=-4.13132e-10 0.500379 -0.610726 0.898651 0.299371 -0.35284 0.164117 0.42774 -0.813783 1.22254 0.718782 -0.235733 0.0460832 1.08617 0.36743 0.866026 1.34865 0.664981 0.602438 0.84477 0.784479 0.941993 0.738759 0.566888 -0.168272 0.583312 -0.50029 -0.72388 0.555679 -0.877658
internal_weight=20964 11523 9441 3865 7658 4159 3729 3929 5282 1380 2485 2318 1633 663 2741 665 717 1820 985 643 494 275 835 1188 1380 953 1841 2194 1164 3088
internal_count=20964 11523 9441 3865 7658 4159 3729 3929 5282 1380 2485 2318 1633 663 2741 665 717 1820 985 643 494 275 835 1188 1380 953 1841 2194 1164 3088
is_linear=0
shrinkage=0.05


Tree=36
num_leaves=31
num_cat=0
split_feature=2 2 0 2 2 1 1 0 2 0 1 1 0 0 2 1 2 0 0 1 0 0 0 1 0 0 2 0 1 0
